192 100
你 -0.002708727 0.0027862662 -0.004343463 -0.0042571877 -0.004909437 -0.0034516607 -0.0034414576 -0.004208843 0.00069360016 -0.004925866 0.0026214402 0.00030121626 0.0033638198 -0.0039645554 -0.004138608 -0.0035391278 0.002938591 0.00429854 -0.002766803 0.0035637561 0.0015757661 -0.004366339 -0.0011953216 0.004399853 -0.0038109664 0.0019484675 0.0019221441 0.0018726652 0.0014258306 -0.0035939687 0.0018364154 0.0008169906 0.0020762542 0.0041574016 -0.0016303323 -0.001821643 -0.0029699872 0.004644029 0.0041444916 0.0019953381 0.0027487315 0.0025150273 -0.004629151 0.0016067992 -0.0024851225 0.004707287 0.004645412 0.0012098495 -0.0023202668 -0.0036030095 -0.00021533901 -0.0020394176 -0.0010821163 -0.0010508401 -0.0048304033 0.0035325307 -0.0045055198 -0.0016243011 0.0010068123 0.0007961453 -0.003750435 -0.0022055202 -0.0048287343 0.0010230141 0.0019353763 0.001794626 -0.0026450001 0.0040009683 0.00086192973 0.00058918353 -0.0022000617 0.004075635 0.0013393466 0.0019486598 -7.0688315e-05 -0.0037714404 0.0046282997 -0.0008948315 -0.0011829061 0.0001400928 -0.0041596703 -0.0029587906 0.0031302553 -0.0002870988 0.0030080471 -0.00345037 -0.0026422155 -0.0017820871 0.0019039768 0.0046571894 0.0010901014 0.001260146 0.0045659943 0.003920572 0.00427143 -0.0038428043 -0.004875516 -0.00077457493 0.0025365613 0.0023202277
拥有 -0.0021210634 0.0012351191 -0.0015984136 -0.0046147266 0.002845903 0.0020768987 -0.0014452033 0.0009434633 -0.00080033997 0.0037661055 0.0038318392 -0.002667635 -0.0016440903 0.0022338638 -0.0010553496 -0.0015433244 -0.0020407068 0.0016222787 -2.9178336e-05 -0.0029860537 0.0011591478 0.0034855576 0.00075411797 0.0002931673 -0.003228008 -0.004429046 -0.0032878094 0.004535063 0.0035844818 -0.004243278 -0.0016823607 0.0048285974 0.0033530137 0.0034404797 -0.001574537 -0.0045244414 0.00400229 -0.0003301669 -0.002746417 -0.0011479354 0.0024083513 0.004398941 0.0007277536 -0.001526047 -0.0008880738 0.0011284412 0.0022625076 -0.001104946 0.0022720424 -0.003937059 0.0025643934 0.00028565107 0.002059415 0.0014549778 -0.0038140612 0.0023592883 0.0029838672 -0.0019827497 0.0014711595 0.00014524441 2.4011824e-05 0.0015257923 -0.003615873 0.00086528994 -0.0013634188 -0.00074331835 -0.003307824 -0.004661705 -0.0046263356 -0.0014367367 -0.003966337 -0.00431384 -0.0018821287 -0.0009889896 0.0032864148 1.7340295e-05 -0.004709176 0.0019325656 -0.0035462498 0.00065791607 -0.0012548172 -0.0010876851 0.0024080272 -0.0040390105 0.0021897308 0.0026312093 -0.0020233653 0.0020140004 0.00025349995 0.00025905063 0.0016585137 -0.002836123 0.0045782486 0.0034523578 0.0011879634 0.0048653428 0.0041697323 -0.004619839 0.0024141818 -0.00394782
哪些 0.0005737692 -0.0013794464 0.0049550673 0.0021060216 0.003096844 0.0016964781 -0.00091244513 0.0036111977 0.0035653766 -0.0003404813 -0.001396541 0.0039668204 -0.004186011 0.0028639855 0.004968091 0.0030049374 0.00012114365 -3.1144824e-05 -0.0023840838 0.0010698978 -0.00157592 -0.00038508791 0.0028809719 0.0022248132 -4.0252693e-05 -0.0022336477 -0.004466685 -0.00017284974 -4.5044348e-05 0.003737012 -0.0028251463 0.004055199 0.0009580068 0.0030679507 -0.0013548885 -0.0042415676 0.00159282 -0.0019589465 0.0013177567 0.0030455086 0.0030601276 -0.0011798774 -0.003906108 0.001352814 -0.0012903225 -0.0034620594 0.004862529 -0.0041949926 -0.00058338884 0.00092950696 -0.00440282 0.0014475835 -0.001830291 0.0034341458 -0.0041761235 -0.0016833395 -0.0003805817 0.003607072 0.0017474089 0.0017569219 -0.002421199 -0.0013439266 0.0037456546 -0.00047646835 -0.0036493896 -0.0018080978 0.0029237894 -0.0039483844 -0.0034184516 -0.0021651858 0.002552357 -0.00210127 -0.004751214 0.003569291 -0.0013003438 0.0043656537 -0.002852853 -0.0015509003 0.0032257047 0.000576986 -0.0007008249 0.0026261047 -0.0035446114 0.001650997 -0.004526215 -9.233365e-05 -4.5565423e-05 0.00019474607 0.004877099 0.001920125 -0.0020389305 0.0009225351 0.00024904264 -0.00080078235 0.0006617103 0.0011887304 0.003520541 -0.0027469331 -0.0043399674 -0.0037779892
藏品 0.00013169227 -0.0026971686 -0.0039863363 0.0009217737 0.003988007 -0.0041683638 0.00442151 -0.0035913694 -0.00085777976 -0.001434129 -0.0032540404 0.002196616 0.0033235773 -0.0011071349 0.0037217094 0.00029846793 0.004821811 -0.0038900394 -0.0015881849 -0.00019499939 -0.0047287354 0.0005844212 0.0037018703 0.00032409187 0.0038758256 0.003972574 -0.0002692039 -0.0033469307 -0.002183798 0.002583248 -0.0049525127 -0.004366899 0.0007653404 -0.0024249004 0.0016614543 0.0035215784 -0.0020301067 0.004327799 -0.0019275171 -0.0038428889 -0.004309744 -0.000628951 -0.0046165786 -9.9637546e-05 0.0014097295 0.0010910546 0.002416919 -0.001280393 -0.00011415221 -0.004371006 -0.0009115059 0.0047350684 -0.003410271 0.0010728836 -0.0037997267 -0.003499317 -0.0045748595 0.0016690395 -0.0020702588 -0.00055291597 -0.0028429013 0.0032678768 -0.00016935589 0.00051242486 -0.0023657375 -0.0017986668 0.0031312807 0.0020625554 -0.0038829523 0.003342608 -0.00011880882 0.0038395226 0.0005952609 -0.0014843643 0.0005090963 0.0020103054 -0.0031461334 0.0002796892 0.0009981734 0.0013223547 -0.0022206635 -0.0042101787 -0.0027238845 -4.696427e-05 -0.0010468541 0.001521803 0.0034931358 0.0009085657 0.0036643306 -0.00069688214 0.004992569 -0.002102649 -0.003400662 -0.003240243 -0.0042332 -0.000428149 0.0015722471 -5.2000396e-06 -0.0023834943 0.0016534007
？ -0.00016290601 -0.0020368956 -0.0029392082 0.004206999 -0.00061181793 0.0007334254 -0.0040053157 -0.0047470694 -0.002819373 0.0048661483 0.0041871453 -0.0013836557 -0.0019446616 -0.0038766032 0.002851868 0.004166185 -0.0028206871 0.0040322207 -0.002381826 0.0045227446 -0.00041474262 0.0022802134 0.0014007962 -0.0049946676 0.0030855108 -0.0025010407 0.0028928723 0.0026950557 0.00023900857 -0.0023266852 0.0022985754 -0.0021627718 -0.0009399373 0.0030489601 -0.001096285 0.0025148839 0.0044683106 -0.00021618884 0.00022904854 -0.00022065826 -0.0032044458 -2.7590431e-06 0.0038881162 0.004514572 0.0032057092 0.002000532 -0.0009146128 -0.0013736784 -0.0010430636 -0.0040802467 0.0049470123 -0.0001532794 0.0003619101 -0.0046245293 0.0034680953 0.0046047345 -0.00069803605 0.003589103 0.001074749 -0.004583153 2.8340612e-05 0.0049530175 0.0011379183 -0.00081357174 -0.004156936 0.0014228625 0.0046545547 -0.0046488517 -0.0030647875 0.002595887 -0.0043480285 0.003342824 0.0044831354 0.0003894586 0.003562129 -0.0049372 -0.00010077935 -0.004147081 -0.0010870369 0.0027559553 -0.0007139449 -0.003380959 -0.003772946 0.0022191769 -0.0015658836 -0.0039653294 -0.0048674713 -0.0031030148 -0.0018133288 0.0037828824 -4.5456458e-05 0.0035527488 0.0016225139 -0.003036081 0.0012446372 0.001164047 -0.0033402562 0.000967185 0.003340844 0.0020861803
为什么 0.0028946819 -0.0025458962 -0.0009788 -0.0031408672 0.0023790575 -0.004847534 -0.0037747305 -0.0047761565 -0.0013985932 0.002043128 -0.0036601773 -0.00026616734 0.0023414753 -0.0038598983 -0.0040235114 -0.002472208 -0.002625112 -0.0024155634 0.004133288 -0.0041008187 0.003022355 0.0016289158 -0.000710187 -0.00079558557 0.00033170683 0.0025890656 0.0047572292 -0.00017727073 -0.0038781767 -0.004151532 0.0028737653 0.004219763 0.00028084032 0.0025198697 0.00072847493 -0.0032138932 -0.0042947875 -0.003311405 -0.00042900583 -0.00089118676 0.0042218985 -0.0023927097 0.0039360784 0.00077586016 -0.001960764 -0.0025701432 0.004392945 0.00041262386 0.00057823304 0.0013737855 -0.0017773055 0.00014411611 -0.0003282111 0.0030320492 0.0011609173 -0.00025645923 0.0044343993 -0.0042711305 0.0029366687 0.0048307134 -0.0030667419 -0.0041298983 0.0033146096 -0.0011491631 0.0019492824 0.0014666831 -0.0039097536 0.0014015893 0.00015027774 -0.0027474063 0.0041901693 0.0016505597 -0.00037658075 0.0044495435 0.0013643843 -0.0039254283 -0.00037641777 0.0018782727 4.9010385e-05 0.0028825374 0.003756769 0.0042960756 0.0027091247 0.0018144841 -0.0018459975 0.0025942186 -0.0038454435 -0.00459808 -0.0020639533 0.0037750686 0.0041194716 -0.0048257313 0.0034809727 0.0048504956 -0.0030019414 0.001753116 0.004358547 -0.0004620417 -0.0024453478 -0.0025718117
接吻 0.0030027023 0.004003401 0.0046164915 -0.0038831078 -0.0022873222 0.0018639886 -0.0045678895 -0.0048988573 -0.0011536807 0.00025130948 -0.00073555484 0.003178414 0.004918717 0.001129387 0.00326576 -0.0017414503 0.00060365023 -0.00088960864 -0.0008310904 -0.0036828958 0.004965895 0.0044995975 0.00018144539 -0.004823504 -0.0017324835 0.00034665037 -0.0030010252 -0.003774805 -0.0031840298 0.0011206171 -0.00024695555 -0.004509409 -0.003894885 -0.004755634 0.0037071956 0.0035886029 -0.004316253 -0.0019740164 0.0028109 0.0032817917 0.0014752271 0.003717512 0.00057666656 0.0014736848 0.0020197006 0.0018441593 -0.0030820346 -0.0013514895 8.0046244e-05 0.000102242455 0.003510709 0.0037252642 0.0022683353 0.0021069725 -0.0017030793 0.0026685386 -0.0036251764 -0.0043104696 0.0021148375 0.00414001 -0.0041726604 -0.004293327 -0.002343365 -0.0019631863 5.7005323e-05 0.0037363553 -0.004792109 -0.00444642 -0.0011610722 0.00056722295 -0.0030206728 -0.004032259 -0.0036226553 -0.0040410347 0.000994178 -0.004854347 0.0032992866 0.004480973 0.003089929 0.004889886 0.0044340743 -0.0027244817 -0.0007651681 0.0042260373 0.0004281504 0.0020379135 0.00031993212 -0.0036573093 0.00022981362 0.00068806065 -0.0010645841 2.6160851e-05 -0.00027632108 0.0032939576 -0.00062518707 0.0006476813 -0.0039374735 -0.00061691087 -0.0042198673 -0.0019549013
的 -0.0046428256 -0.00091165584 0.0030104425 -0.0032059043 -0.003757311 -0.0034752195 -0.0032850993 -0.0008207881 -0.0046502375 0.0010775072 -0.0012038082 -8.079782e-05 -0.00077767065 -0.0022243059 0.001021326 0.0027025603 -0.0026666045 0.001602448 0.002326068 0.00048184255 0.0015898133 -0.00231314 -0.0027107953 -0.0029554605 0.0049171764 0.0008953167 -0.0017714214 0.0034270976 -0.0043517933 -0.0012079387 0.0006217682 0.0043099495 0.0039449595 -0.0036358093 0.0009934865 -0.0044513727 0.0025796257 0.002013986 0.0031268988 0.0020590732 -0.0043965727 -0.0048657525 -0.0024242974 0.003367626 -0.0025084876 -0.004712356 -0.001889324 0.0004218174 -0.0046683284 0.004072817 0.00025190273 -0.00097560417 0.00404233 0.0012886208 -0.0036695264 0.001156034 -0.0048222933 0.0028243102 -0.002469092 0.0030372562 0.0046932623 -0.0024025375 0.0018000943 -0.0014602637 -0.003413675 3.0142255e-05 0.0045029037 0.002864033 0.00047514355 -0.0040252185 -0.0025763547 -0.0045859804 -0.003212755 0.0026774644 -0.004805191 -0.001287821 -0.0013408512 -0.0011134988 0.0010952996 0.00047137123 -0.00068293465 0.00359023 -0.0028353888 -0.0033919853 0.0011545285 -0.00054894853 0.001366056 4.7413167e-05 -0.003700023 3.69763e-05 0.0003273273 -0.0002630339 0.004283526 -0.0048910975 -0.003201773 -0.0013441187 0.0046996754 -0.0032143407 0.0045064213 0.00078672543
时候 0.004679084 0.0021333974 -0.002129343 -0.0017802238 0.0045017144 -0.000688815 0.0008300743 0.00021537114 -0.0041902936 0.00016796729 -0.00087086065 0.003302197 0.003913247 -0.0046868855 0.0048364494 0.0041944617 0.0027457434 -0.0014433528 0.0033330703 -0.0031241714 -0.004308571 -0.0039927405 -0.0011993933 0.0025299774 -0.0026038396 0.0038000634 0.0002629822 -0.003073907 -0.004513634 -0.0009422912 7.72248e-05 0.0024474976 -0.0019456202 0.0038380623 0.0028539924 -0.0040448913 -0.0014409393 0.0015639579 -0.002445331 0.002300865 0.0031589372 0.00013149017 -0.0034959018 -0.0037861895 -0.0025994098 0.0036360668 0.0019210768 -0.002451816 -0.0011668468 -0.00491439 0.0010644696 -0.0038664173 0.0031156521 0.0049442677 -0.0024727923 -0.0033505606 0.0041771308 0.0044387626 0.0038814358 -0.0031488847 -0.002211243 -0.0039459127 -0.0022787158 -0.0002681506 -0.00490142 -0.0011863369 -0.004299751 -0.004785866 0.0031194212 -0.0015024203 -3.3404212e-05 3.961008e-05 -0.0032415069 -0.0039701834 -0.0006287717 0.0016584 -0.00114574 0.0011782777 -0.001940859 0.0028287265 0.0039712386 0.001079591 0.0017864956 -2.338225e-05 -0.0010116543 0.0022715176 0.0015979162 0.00025869953 -0.0020335168 0.0028588194 0.0048821354 -0.0046735792 0.0012232554 -0.0004629409 0.0007193852 -0.0031467401 0.002235483 0.0026771198 -0.0006976994 -0.0016834224
男生 -0.0015999423 -0.0033918042 -0.0014943688 0.0037958315 -0.0032604604 0.0034466963 -0.00048152963 -0.00020159129 0.00086884154 0.00494007 0.0029879753 0.0030272752 6.5256376e-05 0.0010746461 0.0045175776 -0.002000746 -0.0028425043 -0.001534661 0.00359248 -0.0047667855 0.0031322846 -0.0035009072 0.00022005243 0.0021237624 -0.0018325001 -0.001221003 0.00089365523 -0.0031609219 -0.0027418167 0.0027511488 0.0030469038 -0.0011889469 -0.0046894387 0.0019517015 -0.0046576774 -0.0020430917 0.00017093774 -0.0021903187 0.0039001694 -0.00073585566 0.0018476183 0.0006114412 0.0022362322 0.0048983553 0.0019621952 -0.0039351564 -0.0026739459 0.004766601 0.00094875554 0.0017257482 0.00039424235 -0.0019694036 -0.004677151 -0.0027784395 0.00037922524 0.0048986245 -0.0018349672 0.004481121 -0.0018388461 -0.00046162913 -0.0020296061 0.0014972524 0.0016984176 0.0033681747 0.0004740446 0.0029474217 0.0041283295 -0.0029617487 -0.0009711613 -0.00019633165 -0.0031570583 0.0028481921 -0.0031584138 -0.00024695555 0.0045464244 0.0024820683 -0.000120995566 -0.00034501217 -0.002334926 -0.0003784676 0.000996816 0.0013327082 -0.0046688365 -0.002036913 0.0014087684 0.001221233 0.0019870074 0.002306236 -0.0041524093 -0.000448165 0.0042185653 0.0007422394 0.0006130915 0.0010165586 0.0027234964 0.0028138561 -0.0028583163 0.0031484058 -0.00064737303 -0.0006167502
会摸 -0.0045689633 0.0023136893 0.0029392699 0.0042915344 -0.0021293943 0.004149696 0.00036832504 -0.0025235931 0.0031533036 -0.00016945368 0.0045417333 -0.00033674762 0.0045816572 -0.0044995993 -0.00065601245 -0.00078181317 -0.0031695294 0.00037416955 0.0032990696 -0.00038237683 0.0046394495 0.00088330684 -0.0034921877 -0.0039469837 0.0039010886 0.0014969767 0.0005271612 0.0031978497 -0.0013099455 0.0027715694 -0.0033292044 -0.001381126 0.00052267686 0.0023824675 -0.0027010774 -0.0048873657 -0.0049478645 0.0033898577 -0.004284661 -0.0003347802 0.004938511 0.0012080069 0.004685561 -0.0024926953 4.031416e-05 -0.00043796469 0.0032664333 0.0006444282 0.00014598016 -0.004758097 0.00020324579 -0.003708819 -0.0040812213 -0.0004990762 0.0015645311 -0.00051853014 -0.003391907 -0.0021259713 0.00029099826 0.0011304747 0.0048647625 -0.004075981 0.0035568876 0.0014048563 -0.004401214 0.0021322547 -0.0014406878 0.001139537 -0.0007117791 0.0019409112 -0.00481807 0.0047100494 0.0013143062 0.0031867847 -0.00492408 -0.0006518322 -0.0037341733 0.004772776 0.0008591623 -0.0022178136 -0.0040037828 0.0015717475 0.0026917998 -0.003967817 0.0040510306 -0.0029767435 -0.0022062534 -0.00471343 0.0015563802 -0.0017217754 -0.004096551 -0.0028837137 -0.0032529603 0.003859534 -0.0012151157 -0.0021611261 -0.003870663 0.0048682857 -0.0028315245 0.004421808
女生 0.0013461662 0.00043060957 0.0023553013 -0.001532532 -0.001409204 -0.00022210414 0.004018193 0.0015965365 -0.0007885541 -0.0022484558 -0.0015111505 -0.0035104179 -0.0022637767 -0.00074338354 -0.0008863793 -0.0035843586 -0.00023993663 -0.0033663642 0.0048289755 0.0045542587 0.00074754516 -0.0045041596 -0.0049231886 -0.002298377 -0.00063347816 -0.0036753928 0.0026850598 -0.0008172295 0.004103656 0.0013257046 -0.0025974333 0.0019162828 -0.0033277068 -0.0012247784 -0.0029016894 -0.0036321133 -0.0040837973 0.0022020158 -0.0025499528 -0.0011438387 0.0004767077 -0.004106256 0.0043130796 0.0036149174 -0.003608827 0.0024794228 -2.8104987e-05 -0.0020166254 -0.004262399 0.0037326422 0.00337586 -0.0013432961 0.0046947952 0.0030656662 -0.0015846973 0.0030669384 -0.00257138 -0.0006880034 -0.0020268399 -0.0008932422 -0.0002473821 -0.0043200646 0.002481402 -0.00170668 -0.0029275448 0.0017639534 -0.0047285836 -0.0022621828 -0.0043372517 0.003244603 -0.0020013242 -0.001592431 -0.0034216684 0.00061294576 -0.001554712 -0.0048071425 -0.0011724497 -0.0026674734 -0.003716384 0.0029057404 -0.004642847 0.0012373729 -0.00079645915 0.0033615232 0.003989611 -0.0028293782 0.0044876114 -0.00318561 0.0020919717 0.0017817537 0.0023988825 0.004720182 0.0015904098 -0.0004735752 0.0007803682 -0.0033097658 0.004315191 -0.00015720446 0.0010218369 0.002337385
胸部 -0.0008066087 -0.0019032115 0.002817425 0.00084829517 -0.0028132235 -0.0030561714 0.002189212 0.0037832074 0.0036975453 0.003519849 -0.0025049418 0.0045069894 -0.0026800102 -0.0004247008 0.0049378946 -0.0032935261 -0.000524533 0.0016668565 0.0019238414 -0.0040316856 -0.001968866 -0.004243776 -0.0025732177 -0.0016800326 0.00015895674 -0.00044576637 0.0027084793 -0.0010731681 -0.00045259763 -0.0038730572 0.004090393 -0.00025898777 -0.0009000264 -0.0013389213 -0.0026694124 -0.0015525401 0.0038460167 0.0021784408 0.0017958009 -0.0005390872 -0.0005006688 0.0026358478 0.0010214923 0.0033059856 0.0033149906 0.0033054724 0.00033324165 -0.0031549297 -0.0023469233 -0.0014649408 -0.0012367195 -0.002516167 -0.0045424 0.0034439815 0.0038355393 -0.0011357903 -0.004532273 0.00496039 0.0027778577 0.0004890682 0.0012929486 -0.0014219361 0.0036327187 0.003955354 0.00027023815 -0.00023388397 -0.002972297 -0.0021781623 0.0030684192 -0.0015115284 -0.0038161695 0.0008985577 0.0040103067 -0.0005389685 -0.003913064 0.0041534174 0.0028995667 0.0027414686 -0.0021506804 -0.0010030065 0.0045794863 0.0033195056 -0.0017146808 -0.0028810273 -0.0021113215 0.0028927699 0.0034219483 -0.0013735127 -0.004686918 -0.003865373 0.0045895353 0.002380921 -0.0017943776 -0.00065365294 0.0026470893 0.0040582735 -0.00040287897 0.002845971 -0.0015628361 -0.0020268618
汽车 -0.003042847 0.0012694406 0.00400131 0.00018722378 -0.00018214108 -0.0008801543 -0.004801906 0.001329259 0.0035252804 0.0034273071 0.0024302024 -0.0019926594 0.001295533 0.0028336737 -0.0032446897 -0.0039457083 0.0020561665 -0.0040484644 -6.296579e-05 -0.003320769 0.00070554856 0.003703163 0.001583756 -0.0048666596 -0.0010896297 0.0019682813 -0.0027969212 0.0008749296 -0.003990242 -0.0036423556 0.0032672454 0.0005091494 0.004686907 -0.00046234764 0.0039006192 0.0019266759 0.0019358187 0.0037499163 -0.0011510986 0.0023268075 0.0008857227 0.0018970347 -0.0017445905 0.004680802 -0.00054983096 0.0020918446 0.0032704594 -0.0037655858 0.0029095495 0.0008754409 0.0022273236 0.0019455231 0.0046101334 0.000113477 -0.0045602 0.0008076923 0.0021819947 0.0032225866 -0.00013120193 -0.0031602567 0.001973256 -0.0011168844 0.0045383796 0.0016483148 -0.0009058849 -0.0028956116 0.003729348 0.0047212485 0.0044952063 -0.0025925266 -0.001899479 0.0034893164 -0.0037545639 -0.0014278758 0.0035012942 -0.0013764005 -0.00013747811 0.004856962 0.0023137745 0.00051088165 -0.003457895 -0.003977607 0.0016107596 -0.004835468 0.002085071 -0.0020772994 0.0021689385 -0.0033123922 -0.003707867 -0.004718025 -0.004474849 -0.002178198 -0.0024739623 -0.0039391676 0.0012731492 0.00048161484 0.001664809 0.0011386843 0.0027310406 0.0029089684
行业 0.0029777838 0.0030194903 -0.0011117994 -0.0016897267 -0.0014672242 -0.0009674416 -0.004822291 0.002461927 -0.004601707 -7.832935e-05 0.00323648 0.0002983939 0.004268592 -0.00023201993 0.000667681 -0.0043140333 -0.0028884208 0.0037697433 -0.00070560444 0.003498124 -0.0005415566 0.0035541672 -0.0034547285 0.0016184808 0.004341365 0.0019901106 0.0013356567 0.0017015985 0.00055794 -0.00094629126 0.0028222455 -0.002035694 -0.0038249944 -0.0026760858 -0.0033559585 -0.0024418426 0.0038547963 -0.0034016646 0.0010661157 0.0032761395 -0.003359872 0.0015180577 -0.002123887 -0.0011335856 0.0038888976 -0.0035318309 0.0014192145 0.0028834566 -0.0013214354 -0.0036132983 -0.0003516064 0.00045203138 -0.0027017242 -0.00025358656 0.004838966 0.0032998165 0.00431367 0.0031640884 0.004723383 -0.0044574207 -0.0038589737 -0.0005650823 -0.00436087 0.003096031 -0.0008174754 0.003005893 -0.0042991857 0.004318933 -0.0014706296 0.0046081953 0.0010585613 -0.00018641213 0.0008199746 -0.0040076314 -0.0014038598 -0.00028198957 0.0043791244 -0.004722672 0.0026611304 0.0025953986 0.0015766714 -0.004602943 -0.004195432 -0.0015953064 0.0003517093 0.0032551987 -0.002881397 -0.0021481293 -0.0014270956 0.0024229307 -0.0006862972 0.0008015656 0.0003597401 -0.0017299526 -0.0012670255 0.0040987274 -0.0027840626 0.0031339126 0.0026148963 -0.004035319
有 0.00049166614 0.0013572397 -0.000698145 -0.0048707137 0.004921089 -0.0042945556 0.0041055046 -0.0037054222 0.0009397818 -0.0029835491 -0.003956184 -0.003005355 -0.001602273 0.0036408473 -0.0010719122 -0.0024713634 0.0046117743 -0.0039434275 0.0010185554 0.0018993248 0.004700206 -0.0024317377 0.0007761158 -0.003363737 0.0017903242 0.0023603993 0.0005350304 -0.0049459552 -0.0028287524 0.0011639129 -0.0045785545 0.0031820955 -0.0036105292 -0.0003215545 0.00077636493 -0.00065011624 0.003218365 0.0028747953 5.751569e-05 0.00049185473 -0.0017887729 0.0009174687 0.0007520057 0.0022460772 -0.0025677234 -0.0013815211 0.0008281274 -0.0016857565 0.0027922695 -0.0012276494 -6.923359e-05 0.004286171 -0.00493744 0.0008301083 -0.0018733912 0.0030460283 -0.0015801233 0.004615116 0.0043564225 -0.001954478 -0.0047210054 0.0030245194 0.0024606101 0.0016790824 0.00495967 0.001025056 -0.0045858556 -0.001140862 0.0005236836 0.004115508 0.0016948562 -0.0024131457 0.00081442716 0.002871802 -0.0004389137 -0.00023412565 0.0030252878 0.0036616614 -0.0033559566 0.0040208576 -0.0005875868 -0.0044622254 -0.0022645681 0.0006698072 -0.0043649883 -0.0023774803 0.00383355 0.0039486466 -0.004950567 0.00027039414 -0.0023114204 0.0016301102 -0.0046144705 0.0028733034 0.0042597074 0.0022015125 0.0032291254 0.0032976065 -0.00073463935 0.0019216151
笑话 0.0023825872 -0.0022916263 -0.00054993853 0.004504986 -0.002842605 0.0049579805 -0.0028692943 0.0032369941 0.0008309162 0.00310635 0.003188814 8.685887e-05 -4.1192397e-06 0.0035977317 -0.004418912 -0.004537259 -0.00086555677 0.0030032266 0.0017839707 0.0044671204 0.0027911724 0.0041102935 -0.0037747084 -0.0049132546 -0.0012994176 -0.0006607133 0.0046553873 0.00092354557 -0.0041585616 0.0010600779 -0.0034208696 -0.004069371 0.0001440118 -0.0007522986 -0.0016091901 0.0026647998 0.0012117284 -0.0013041699 -0.004573909 -0.0043325364 -0.0013064367 -0.0018084049 0.0026944643 -0.0007936107 0.003215842 -0.0014591378 0.0014320691 0.00025946368 0.0038053133 0.0038305568 -0.00030922843 0.00048808288 -0.002896006 0.0017527472 0.0024288064 0.003413028 0.0046771513 0.00029359758 -0.0022141277 -0.004999964 0.003599777 4.841434e-05 0.0043507135 -0.0032676237 0.0026224894 -0.0049147313 0.0013485677 -0.0023517949 -0.004309713 -0.0008676071 0.0029043145 0.0035834555 0.0017053997 -0.002746411 0.00017655035 0.002108655 0.0024042763 -0.001382522 0.00406293 -0.0005125217 -0.0036026477 0.00497076 -0.0031217288 -0.0025871038 0.0007259827 0.0008432139 0.0007429151 -0.0009410186 0.00476708 0.00077946996 0.0019171964 0.002114114 -0.004373846 -0.0017136347 0.004598949 0.0008095801 -0.00428872 0.00190154 -0.0008660997 0.0017752014
如何 0.003992782 0.0038920557 0.0022014086 -0.0004348103 0.0030140998 0.0048297495 0.00011481065 -0.0040411022 -0.0028909682 0.0018519564 0.0035356777 -0.0014927839 0.0049516587 0.002163332 -0.003380109 -7.532351e-05 -0.00011170702 0.0009071473 0.004091815 -0.0002207784 -6.682519e-05 0.000360216 0.00464864 -0.0017384295 0.0024084128 0.0035396144 0.0012255777 0.004410915 -0.0034131873 -0.0025421607 -0.003615399 -0.00078502065 -0.0046207104 0.0030500013 -0.002899515 8.710148e-05 -0.000702417 -0.0048808996 -0.0046702055 0.0013205176 0.0040721605 -0.0024004227 -0.0004022061 0.00024844147 0.0015277965 0.0014025164 0.0038320702 0.0015501427 0.0012205835 -0.0041058515 -0.0010447609 -0.0046303403 0.0010549114 0.00089875795 0.0044524744 -0.0029279399 -0.00110399 0.0005482896 -0.0021007264 -0.004905421 0.001839037 0.0039665354 0.0043463632 2.7331524e-05 0.0041971393 0.0039069476 0.0014860625 -0.00039437553 -0.0033294945 0.0034227837 -0.0005875812 -0.0033504176 -0.00456644 0.0011286372 -5.2550342e-05 3.1992793e-05 -0.004041396 -0.0038133066 -0.0022629565 0.003646696 0.0005380227 0.0037003485 0.0024269312 0.004626259 -0.002995972 -0.0029545699 5.4416247e-05 -0.0004931856 0.00011803489 0.0024969643 0.0027718716 0.0022851527 -0.0020287877 -0.0032144664 0.0030397195 0.0041091153 0.004811473 0.00085094525 0.0043873293 0.001898706
快速 -0.0010640956 0.0008416283 -2.577668e-05 0.0030545034 0.0013985503 -0.0030386662 0.0011701523 -0.0038873535 0.004656651 0.0031080581 0.003921658 -0.004698682 -0.0044259983 0.0045421775 -0.00084268674 -0.0038623333 0.0010315077 -0.003349902 0.0005772193 0.0036333269 -0.0004692576 -0.004848562 -0.0044292766 0.004145871 -0.004269254 0.0014867876 -0.0047237827 -0.0023430448 -0.0031472938 -0.002207411 0.0022914256 -0.001378383 0.00085753016 0.0025327052 -0.0011827201 -0.0020384346 0.0007549715 0.0045006312 -0.0011247355 0.004888677 0.004321974 -0.0045909286 0.002293534 0.0033656023 -0.002373135 0.0025620689 -0.00227611 0.0015548738 -0.00047675613 0.00014482997 0.0036760448 -0.0043677175 0.0012315377 -0.00148791 -0.004784055 0.0010365616 0.0014694682 -0.0005549132 -0.004906847 -0.004110477 0.0023493278 0.0011409372 -0.0027294182 0.0016441043 0.0028604353 -0.0027353412 -0.004367277 0.00048196083 -0.00076781074 -0.0031929184 -0.0019725668 -0.0016727436 -0.0036702207 0.0024633897 -0.0019977628 -0.0027993917 0.000102066435 -0.0035657124 0.0013228627 0.004332659 0.0014315457 0.00343824 0.0041840486 0.0013840599 -0.00442638 -0.002881007 -0.0035171807 0.0012884531 0.0027094889 0.0047801565 -0.0032193065 0.00037233578 -0.0007376969 0.00021447614 -0.001742847 -0.0047235177 -0.00016066618 -0.003473619 -0.0031425846 0.0008802749
去除 -7.703714e-05 0.0030322596 0.0030664653 -0.0028450817 -0.00057348143 0.0016787285 0.00037516095 -0.004230459 0.0011521108 0.0046271468 0.0027196473 0.004888433 0.0036230637 -0.0049649226 0.0009851628 0.0016912604 0.0033706222 0.001186816 0.0005932539 -0.0029829703 0.0021718233 0.0033421703 -0.0030047023 -0.0010621147 -0.0023836403 -0.0029791296 0.004590287 -0.000521034 -0.00228972 0.0036992468 -0.000359355 0.0013158983 0.0007194928 -0.00083369715 -0.00011192914 -0.0023832582 0.0017308425 0.0031595044 -0.003213626 -0.0022812963 -0.0013520848 0.0038620606 0.0030774102 0.003091109 -0.0029705 -0.0038295453 -0.0009928024 -0.00031074323 -0.0003873892 -0.0041260486 -0.0035434244 -0.0017569971 0.0029311394 -0.0024962747 -0.0045222384 -0.0014263571 0.0020577647 -0.004400322 -5.852431e-06 -0.0021518213 0.000601924 0.0022195852 0.0027385904 0.00042540533 -0.001343867 0.003974526 0.0010635899 0.0040778583 -0.003919191 -0.00442437 0.0011991453 -0.0006488459 0.0013926118 0.0030897995 -0.0047148815 -0.0014540022 -0.004732204 -0.00076589175 -0.002817071 0.0034688804 -0.0026925004 0.0008324953 0.004811031 0.0048939195 0.0032870714 0.0032551065 -0.0028753094 0.0028682873 0.0021744943 -0.0011668294 0.0013488187 0.0010282039 -0.0011254966 0.0016264603 -5.7360157e-05 0.0013729818 0.0047464585 0.003907918 0.0013871165 0.002231541
前 0.0027018404 -0.0036252616 -0.0030709887 -0.0016216552 -0.0032963995 -0.003917372 -0.0027446854 0.0025885613 -0.0021495174 -0.0030133468 -0.0028789048 0.0035568047 0.004514221 0.0037370445 -0.0001707431 0.0024253624 0.0035275668 0.0032990072 -0.003125506 -0.003922297 0.0032897731 0.0042918306 0.00051224 -0.0020388996 -0.0033275639 -0.0043445765 -0.004588698 0.0037412345 0.004821495 0.0012715133 -0.0009372956 0.002853007 -0.0024310618 0.0028040824 0.0004441524 -0.0025575203 0.0036224201 -0.0024682651 0.0012709922 -0.0007268279 0.0001892508 0.0022226567 -0.0011623991 0.004358845 0.0010861247 0.0039728936 -5.911151e-05 -0.00319583 -0.0011418664 0.0035415292 0.0045306953 0.0011986089 0.0035069762 0.0032199258 0.00039798487 -0.0016500549 -0.0048340815 -0.0013775493 0.004645896 0.0013490659 -0.0017762028 -0.0024261016 0.0043501426 -0.004961649 -0.0017695068 0.00033951644 0.0005706204 0.0031333426 -0.0020891444 0.0010243072 0.0042936355 -0.00016501732 0.00070873694 -0.004555775 0.0034911893 -0.0021187805 0.0032855216 0.004078501 -0.0013202066 2.8945971e-05 -0.0025387954 -0.0017483132 -9.019207e-05 -0.0009069275 -0.0022130543 -0.0015874635 -0.0017315256 -0.0020493018 -0.0008208235 0.0033510253 -0.0035396605 -0.0038094223 -0.00011050841 -0.00043903012 0.003990422 0.0022088774 -0.003624035 -0.0020017575 -0.00339437 -0.0006553852
挡风 -0.0005529607 0.0009531663 0.0025949217 -0.0029490571 0.0023002685 0.0010604179 0.004983484 -0.0007260521 -0.0024941354 0.0015342506 0.0027768565 -0.0032016635 -0.0012427336 -0.0010568099 -0.0022952354 -0.0015619118 0.004932969 -0.00037288712 -0.003786562 -0.00020497665 -0.0015723014 -0.0041893898 -0.0028144435 0.0011259555 0.0019045956 -0.004553701 -0.0012233299 0.001312525 0.001089416 0.0022269487 -0.003379745 0.0026190989 -0.0006284858 -1.2747012e-05 -0.001365283 0.0012224955 0.004148498 0.0007478739 -0.0024893528 -0.0045550526 1.8107705e-05 0.0024991725 -0.0029051083 0.00077788485 -0.004385866 -0.004940348 0.00010587415 -0.0012163336 0.0047021452 -0.0039723776 -0.0012595868 -0.0012285744 -8.488074e-05 -0.0043689297 -0.0023552023 0.0043226983 -0.0012338506 -0.004559175 0.0010570614 0.004445494 0.0015634345 -5.4654665e-05 0.00012493692 -0.003897489 0.0013224375 -0.0012966888 -0.00067199115 0.0037940638 0.0024112617 0.0044595497 0.0013992698 0.0023465762 -0.0004091491 0.0018878384 -0.0002655252 -0.0039152424 0.00038319267 -3.4524128e-06 -0.0009924755 -0.0018804269 -0.00297059 -0.0025931369 -0.0020162116 -0.00082047516 0.003230093 1.2975186e-05 0.004674671 -0.0035623163 -0.0005291123 -0.0020591242 0.0040991753 0.0008793245 -0.0022649658 -0.004816915 -0.0003232984 6.535696e-05 -0.0047965273 -0.00295165 -0.0021539456 0.003121714
玻璃 0.0031633396 0.0011193776 0.0010977201 0.001240782 -0.0043580257 -0.0039069187 0.0038281484 0.0012855227 0.0049502347 -0.0022910838 -0.0024075913 0.00079069426 -0.0013714659 -0.002805078 -0.0033378066 3.0200463e-05 0.0013687206 0.0015205937 0.0018654875 -0.0035993177 -0.0040933937 -0.0033551871 -0.0032186394 -0.0036673266 0.0033058012 0.0022229836 -1.9464642e-06 0.0036345068 0.0036123386 0.002930358 0.0044111935 -0.003011977 0.0025509358 -0.0038676744 0.001808214 0.0022744555 0.0009292443 -0.0023829234 -0.0011033243 0.0014907839 -0.0027422141 0.0008723424 -0.00172931 -0.001636765 0.0042611267 0.0019743224 -0.0003047972 -0.000472561 -0.0008453154 -0.001151901 1.3880897e-05 -0.0015305018 0.0024446254 0.0042147264 0.004005121 0.00023735408 0.0033451002 -0.004220269 0.0016619996 -0.0026494311 0.003469279 0.0016794177 0.004658048 0.004822273 0.0026184893 -0.00059583224 -0.0024349308 -0.0020106493 -0.00014548888 -0.0031454805 -0.0031076288 0.0027800822 -0.0041176453 -0.0039316243 -0.0019365507 -0.0023519783 -0.00499206 -0.0023683202 -0.0038537972 0.0033606673 0.004117433 -0.0009041671 -0.0018472408 -0.0033228085 0.0042992597 0.0019621463 0.0025900546 0.0049990453 0.004426632 -0.0030291707 0.0026712106 -0.00055987295 0.0038694944 0.0026981775 -0.0016696965 -0.0047877585 -0.004579519 0.002823935 0.0017801696 -0.0015579616
上 0.0029046042 -0.0014538956 2.0358711e-06 0.004758344 0.0006289636 0.0039285254 0.003224886 0.0031983033 0.004047864 0.00037793117 0.0038058152 0.0047875363 0.0049679354 -0.0010264679 -0.0008380823 -0.0021705555 -0.002562226 0.004228063 0.00082795555 0.0022372887 0.0026313798 0.0025849869 -0.0011943239 0.004912534 0.0047232322 0.004648892 -0.0023181885 0.0025616027 -0.002171182 -0.0030465994 -0.0046908776 -0.0037998508 -0.0018441654 -0.0038367338 -0.002505635 0.0035066456 -0.00090378383 -0.0017537987 0.0025532614 -6.461423e-05 -0.0033029197 0.0018922407 -0.002359568 0.0027027237 -0.002502914 0.0045685843 -0.0030886508 -0.0046446375 -0.0013886732 0.00315578 -0.002262649 -0.0029786138 0.00080647366 0.00016765296 0.002173786 0.0008513122 0.0045768907 0.00029839622 -0.002615584 0.00022133626 -0.00023910869 -0.00076490594 0.0026243632 -0.0010119728 -0.0005685049 0.0022619022 -0.0008704215 -0.0007103663 0.00476465 0.00035165902 0.0048215277 -0.0023299104 0.001038318 0.0030976888 -0.00071822805 0.0037141154 -0.0037039232 -0.00270838 0.0047492934 0.0046297926 0.0011779927 0.00485499 -0.001456188 0.003280567 -0.0030188917 -0.0037536472 0.002766597 0.004499901 -0.00017682323 -0.004817418 -0.0045740753 -0.003950162 0.0040147966 -0.004915593 0.00088448264 0.002729733 0.000960337 0.002180046 0.0008714348 -0.0011040908
冰 0.0038805548 0.004636368 -0.0041762595 -0.004281939 -0.0026744418 0.00090994174 -0.0011331504 0.00010398729 0.0037480872 -0.0020429897 -0.00050084526 0.004071925 -0.0022939998 -0.0038371175 -0.0007513659 -0.00039755274 -0.002685477 -0.0026562344 -0.00019076886 0.0044005746 -0.0018427945 0.0014127339 0.00376165 -0.0032323361 0.0010988954 -6.324053e-05 -0.0030554305 0.0026206118 -0.0043592653 -0.0012093764 0.0016567772 0.003050129 -0.0032628118 0.004148867 -0.00046705082 0.0049786707 0.00091425097 0.0036909636 0.0041457703 -0.0045975577 -0.0009529181 0.00065399846 0.0044472003 0.00013142871 0.004073499 -0.004654901 -0.0045710728 -0.0025748997 0.0036473768 -0.004917886 0.0029362217 0.0015648543 -0.0023033177 0.001061393 -0.0046148705 -0.003839814 0.0030379854 0.0045789387 -0.0044195466 -0.0043089567 0.00082833786 -0.001598513 0.0011571031 0.001423494 -0.0035582278 0.0028971294 0.0032976232 0.0012161583 0.0013871063 -0.00073235994 0.0012991033 0.0031873109 0.00325952 -0.0012271088 0.0004909169 0.0031647393 -0.0031988018 0.0047802087 0.00046093483 0.0002103257 0.0002966239 -0.0021640956 0.0024585016 -0.0039911745 -0.0011160499 0.0032930719 0.002281095 -0.003878942 -0.0026998115 -0.00011797249 0.0047827363 -0.0006556278 -0.0032562404 0.0036725933 0.0018299818 0.0015523853 0.0044564474 0.0009708456 -0.0040690983 -0.004556167
发动机 -0.0020382958 -0.001931871 0.004938704 -0.0026834202 0.004610748 0.0014106086 -0.0010043909 -0.0024784266 -0.0012284738 -0.0026364154 -0.003550704 0.002296195 -0.0026959865 -0.00399078 0.003120819 -0.000107164495 -0.0040725963 0.003444368 0.0029163621 0.0036498364 -0.002551751 -0.0005859812 -0.0002691443 -0.00021228241 -0.0043616025 0.003394748 -0.0014333648 0.0017893761 -0.0037129307 0.0022330438 -0.0030814218 0.00015088124 0.00043965084 -0.0018896735 0.0016660909 -0.0014087588 0.0029562274 -0.0024362188 0.004807703 0.004833577 -0.0049327193 0.002364921 0.0017369064 -0.004318233 0.0023417133 -0.0022687793 0.002946237 -0.0031132519 0.0016987706 -0.0014825945 0.0008592708 -0.00418051 -0.002520235 0.00076534785 0.0025643408 -0.004106236 -0.0014301508 -0.0042402768 -0.0025543368 0.0031702472 -0.00035039196 -0.002585196 -0.0008741496 0.0037735244 -0.0013656223 0.0047886074 -0.0015205573 0.0001411559 0.0033669788 -0.0038539427 0.003375411 -0.0044201473 0.0015460346 -0.0045426637 -0.004306617 -3.9519276e-05 0.0024530976 -0.00050158845 0.0016756449 0.0037893755 -0.0021613222 -0.0003800122 -0.003999399 0.004614815 0.0029727342 -0.000709062 0.00025940174 0.0023893034 0.0003009229 0.0026496649 0.000116129406 0.0014046193 -0.0026145685 0.0046239626 -0.0049835388 0.0042583663 -0.0025474941 0.0032621678 -0.004337596 0.0035511842
漏 0.0045216717 0.002397338 -7.68546e-05 0.0023680776 -0.003052169 2.1777116e-05 -0.0037845331 0.0019616853 -0.0022914303 -0.0049851537 0.0047505107 -0.0022298407 -0.0036268453 -0.00052057626 0.0046302304 -0.0027129883 0.0017499076 -0.003343457 -0.0013514895 0.0041267155 0.0014498574 -0.0041180253 -0.0007132818 0.004832863 -0.0036143153 -0.002641592 0.0023435103 0.0032848362 0.0022207545 0.002347853 0.0035001105 0.0048901364 -0.00089401193 0.0020368886 0.0019580037 0.0044627674 0.0031048432 0.00033238996 0.0022693314 0.0014462713 0.0017902995 0.0028910646 -0.0036816143 0.0025498765 -0.003770467 0.0043265633 0.003290874 -0.002050048 -0.0009618206 -0.001145733 0.0025516306 -0.00085149705 0.0009841151 -0.004633418 0.004296626 0.004813156 0.0029837098 0.0016801292 0.0009353305 -0.0048473566 -0.0035298471 0.0045922603 0.0012310729 0.0001699184 -0.0042922697 0.0013801642 -0.0031891637 4.0219165e-06 0.0035042642 -0.0009558047 -0.004964143 0.002286158 0.00013835868 -0.0026890414 0.0020768023 -0.004888216 0.0016414793 0.0039331624 0.003682104 0.004688126 0.0049326206 0.003590771 -0.0006988561 0.000715727 0.0034096185 -0.0037967185 0.0037027989 -0.0041244337 0.0015577883 -0.0015765971 0.0046710502 0.004275944 0.0005866145 -0.00063045556 0.0010248884 -0.0035397415 0.0029522916 0.0021975446 0.00076686963 -0.00012892717
油 0.004047541 -0.0021036677 0.0033388473 -0.0022946352 -0.0014412694 0.0007162024 -0.0010235654 -0.00019050576 -0.0030173038 0.003942718 0.0019493313 0.0045079235 -0.004230334 0.0032497263 0.001820155 -0.0028256595 -0.004792175 -0.00051660417 -0.00079342583 0.0041304734 -0.0026604224 -0.0005388274 -0.0049576587 -0.0027741885 -0.0043303445 -0.00071728835 -0.00027139112 0.0018649246 -0.004562388 -0.0046362113 0.0017565005 0.00088623865 -2.6977155e-05 0.0006959443 0.0008270554 -0.004200952 -0.0018910372 0.0028968574 -0.004687623 -0.002506036 0.004273073 -0.0009837104 0.00384989 0.0022839103 0.00043172901 -0.0034216768 0.004850503 0.004343572 0.0037553003 0.0048963223 0.0022307867 0.0018382003 0.0044146404 0.00022169063 0.0006788536 0.0025409036 0.002449979 -0.004941972 0.0046689278 6.493926e-05 0.0020315694 -0.0014840728 0.0035745278 -0.0037225042 -0.0010257517 0.0030379118 0.0030912133 -0.002124815 0.0030900696 0.00025638752 0.0041656 -0.000895543 -0.003993959 3.0532945e-05 -0.0010081376 0.0005704565 -0.0014353101 0.0039129807 0.0011429717 0.0036079576 -0.0011257112 0.0017295484 0.0018157484 -0.0018964212 -0.0022163403 -0.0002838457 0.004211708 -0.0019452274 0.0026204623 -0.0002093506 0.0034598466 0.0007444131 -0.0004260214 0.0024738335 -0.0022049993 -0.0027170712 -0.0026556002 -0.0010088165 -0.0016336238 -0.0009824247
， 0.0038750013 0.0038139792 0.0043063117 -0.0046767355 0.0045359293 0.0014996948 0.0037023844 -0.0025691038 -0.0033746487 0.004612594 0.004828763 -0.0007153475 0.00404331 0.004895403 -0.0031417024 0.0048768222 0.0005045915 -0.002198013 0.0022938573 -0.0019452083 0.0039305454 0.0023204926 0.00013839407 -0.002215776 -0.0023370795 -0.0035718929 0.0023793806 -0.0038424318 -0.0028592134 0.0040805396 -0.0017873866 -0.0028689397 0.0045884307 -0.0027923721 0.004394098 0.004420299 -0.0017061161 0.0028439276 -0.0047833333 -0.0009980672 0.0015083058 0.0026901495 -0.0016811765 0.0023339032 0.0018350445 -0.0016583926 -0.0032833796 0.0018170993 -0.002706486 0.004464917 0.0014180983 -0.0023488651 -0.0040221433 0.0013564201 -0.0015050513 0.0046977326 8.698413e-05 0.00479874 0.00015953416 -0.0037118034 0.00313887 -0.002733785 -0.0041907565 -0.00332849 -6.211456e-06 -0.0024545372 -0.002584318 0.0016831825 0.003752009 -0.002548737 -0.0029407984 -0.0019020527 0.0013541202 -0.004992498 0.0008552219 0.003649583 -0.0024583493 0.0029964373 -0.0016409373 -0.0040405486 -0.0003812802 -0.0009325743 -0.0031424123 0.0026705079 0.0030304696 0.004545221 -0.000788108 0.003422319 0.0019519585 0.000828173 -0.004851043 -0.0034225201 0.0012418376 -0.0033102296 0.0026895446 0.004152188 -0.003270282 0.0007474832 0.0040166173 -0.0045312014
问题 0.0043485546 0.0031609256 0.0026088716 -0.0012213378 -0.0015868293 0.0034564137 6.662076e-05 -0.0017601948 -0.00049680704 -0.00101719 -0.0006078305 -0.0032242024 -0.0015539466 0.00086083356 9.045936e-05 -0.0047104047 -0.0002180594 0.0018070335 0.0020472445 0.0015540929 0.0031885626 -0.0037617283 -0.0041197953 -0.002494393 -0.0015624957 -0.0015781121 -0.001052639 0.0034646746 0.00035409257 0.00017457502 0.002737904 -0.0048611267 -0.0012600988 0.0033916337 0.0012235898 3.55863e-05 0.004853485 0.001760581 0.0019657123 -0.0038193506 0.004246344 -0.0028921657 -0.0038706874 0.0012782961 0.0017010402 -0.0020884078 -0.00095326826 0.0017159111 0.0037135882 -0.003996949 -0.0021798634 -0.00090887025 0.0023707552 -0.0014789545 0.00377406 -0.0025499277 0.0035944106 0.0018150383 0.002958674 0.004381218 -0.0014879566 0.0013631647 -0.0026368308 -0.0029137593 0.00038986746 0.0046618925 0.0009739683 0.003721686 -0.0028335017 -0.0014741367 0.0014715022 0.003504876 -0.0017521412 -5.100062e-05 -0.0031971007 0.004981216 0.004198876 0.0039062304 0.002870542 -0.0031937938 0.0018923823 0.001128565 -0.0040248767 0.0017505167 0.0029499354 0.0029469663 -8.890964e-05 -0.0020091492 0.0020142714 0.0037276503 -0.0039723655 0.0049416516 0.0003608819 -0.0039545307 0.0019491762 0.0030921903 -0.0011485606 -0.0049554873 -0.0023819671 0.0024800878
大 0.003674076 -0.001808703 -0.003919397 -0.0005668686 -0.0035372125 0.0010685557 0.0046192585 -0.0018823266 0.004241444 -0.0021934242 -0.004337548 -0.0041143303 -0.00451151 0.0039852485 0.00048079295 0.0029414222 -0.003372745 -0.0036862795 0.0031601451 -0.0036611436 -0.0026253695 -0.003030613 -0.00048553245 0.0012386292 -0.0016975456 -0.0028337229 -0.0043188175 0.0041924817 0.00032918341 0.003619493 0.0019420455 -0.004759465 0.0030577015 0.0043605687 0.0009725569 0.0036459677 -0.0036629974 0.00054099364 0.0029620007 -0.0033699255 0.0030532107 -0.0029560851 -0.004634651 9.659538e-05 0.004399373 -0.0048034946 -0.0032471518 -0.0009419308 0.0044600954 0.0034914948 -0.0036215584 0.0024984055 0.0042180754 -0.0024986768 0.00069510285 4.4000335e-06 0.002802527 0.00035134237 0.0037917607 -0.0005405871 -0.0048126117 -0.0022104608 -8.5536856e-05 0.0031668004 0.004524258 0.002685625 0.0002771723 0.0016377266 -0.0041274237 0.00027738558 -0.003765407 0.0045683254 0.004774303 0.004936494 0.0028771115 -0.0016508859 -0.004980115 0.004061017 -0.0032317257 -0.001297009 -0.0019878875 -0.0024724256 -0.0049904943 -0.002411437 0.0025472427 0.0022688168 0.0021565878 0.004116331 0.0011946624 -0.003156939 -0.0014379334 0.0030561388 -0.004625992 -0.0026425784 0.004125488 -0.0021155453 -0.0049235774 0.0043118484 0.0012107869 0.003950487
吗 -0.004163345 -0.004705553 0.0023237574 0.0006217472 0.003563637 -0.00069890963 0.0030778665 0.00060670916 0.0033844048 -7.643225e-05 0.0043140044 0.0015909201 0.004239328 -0.00020745816 0.0047888076 0.0023667035 0.0012492454 -0.004965288 -0.0036220313 -0.004178512 -0.004843287 0.0014227531 -0.0034645044 0.0007634247 -0.004989397 -0.0034925817 -0.00036116596 -0.0031647163 -0.0044176904 0.0037564263 0.0020054737 0.00010302942 -0.0047738343 0.0037213545 -0.0016732693 0.00085643586 0.0049548056 -0.00061491365 -0.0012254177 0.0046801837 0.003535184 -0.0027264457 -0.004175514 -0.002907927 -0.00078903325 -0.0038396036 -0.0005417918 0.0035763113 0.0012690867 0.0041617164 0.002476912 -0.001173842 -0.0029580896 0.0026088608 -0.004795899 0.00085773785 0.0015879921 -0.0012452418 0.0014782827 0.0015403372 -0.0042669456 0.0046721166 0.0006543733 0.0003129281 -0.0010450752 -0.0035578196 -0.00050286157 0.00057407515 0.0021122391 -0.00376675 -0.0010710759 -0.0040562814 0.004797074 0.00094914204 0.0006105993 0.003496442 0.0049497588 -0.0017428696 0.0021954826 -5.775038e-05 0.0026426055 0.003442591 -0.002307185 0.004522575 -0.0006836108 0.0016597719 -0.00045096828 0.00313857 -0.00040259957 -0.0007223254 -6.0175546e-05 -0.0026979328 -0.0047532283 -0.0021584118 -0.00060134986 -0.0017699075 0.004852143 -0.0012155473 -0.0013264029 -0.003206307
应届 0.0018738871 -0.0007558884 -0.0009529386 -0.0005429019 0.002756537 0.0042458232 0.0020549614 2.6183669e-05 -0.0040130727 0.0035438081 0.0035735313 -0.0043941243 0.00019543804 -0.0039638598 -0.0033862195 -0.0045121536 0.0039479025 0.0006408347 -0.0026615285 0.0022046128 -0.004043185 -0.00019571418 -0.004166897 0.0028206455 -0.0015323448 0.004163579 -0.0004887092 -0.00286677 0.0020964677 0.0003783498 -0.0007364247 0.003909992 -0.0028094787 0.0020263963 -0.0004735035 -0.0044999872 0.0011590528 0.0017783092 0.0026129466 -0.0012001991 0.0036363574 0.003114895 -0.0021691136 -0.0013767784 0.0019975044 -0.0030552195 -6.293878e-05 0.0009819889 -0.00080436096 -0.0048559275 -0.0022106373 0.0035258783 0.00080885785 0.004960724 0.002838296 -0.0012202065 0.00020460505 -0.0022724993 0.0048354045 -0.0030741834 -0.004698556 0.0031679394 -0.002586575 -0.0048720273 0.0025556986 -0.00085466495 -0.004673517 0.004590229 -0.004864812 -0.0025970573 3.437139e-05 0.003129324 0.0049234834 -0.0035433946 0.0020664781 0.0006024479 0.0037106583 0.0048229666 -0.0036434005 0.001807204 -0.0017516292 -0.002057659 -0.0031809122 -0.004258961 -0.004773016 0.0013626809 -0.0036342512 -0.0022824167 -0.0013747113 0.0030467957 -0.0026589972 0.0039369008 -0.0035631782 -0.0006397306 -0.0035818743 -0.0025980328 -0.0019684832 -0.00076533714 -0.00465827 0.0039452408
本科 -0.0021583408 -0.001622638 0.0019083465 0.0020200848 0.0022402713 0.00040859776 0.0046129543 0.003727165 0.0028427877 -0.0010275925 -0.0017673629 -0.00218261 -0.003895388 -0.003742122 -0.00025809277 -0.004726014 0.002429762 0.004056141 0.0015372802 -0.0019562095 -0.002641046 0.0044939956 0.0016192854 0.00050605135 0.0044394815 0.0037822453 -0.0007907385 0.0010519107 0.0032340698 0.0045705363 -0.00091347704 -0.001329184 0.0028396053 0.0032290947 -0.0024569153 -0.000887271 0.0013617328 0.0036467277 -0.0016569232 0.0031967899 -0.004414956 -0.004136046 0.00022635004 -0.001367948 0.0025602127 0.00074938964 -0.00041612564 0.0042427843 -0.004668989 0.0037998995 0.000852861 0.00089697726 0.0028159795 0.0024306946 0.0021894728 -0.001067353 -0.0039696884 0.0041144406 -0.0035492282 -0.0032268316 -0.001031843 -0.001989284 -0.001985252 -0.0032729572 0.0036490494 0.0016890424 -0.0028587335 -0.00035127345 0.00241749 0.0046149036 -0.0035960716 -0.0030936943 -0.0007022093 0.0005789655 0.0027734027 0.0049931305 0.003016633 0.0007084594 0.002145567 0.0029310808 -0.0030286652 -0.00038017798 -0.0046052784 0.0029083593 -0.0024386072 0.0028792722 0.0038046725 0.0043004462 0.0015929658 0.0045896014 -0.00012455834 0.0038262252 0.00029909145 0.0028560776 0.00468871 -0.00092954654 0.00047386764 0.0024118293 -0.0018554223 -0.0033953656
毕业生 -0.002450938 0.0012764521 -0.0015571665 0.0018310416 0.004840618 -0.004730781 9.639701e-05 0.002066149 -0.001073827 0.0026854859 0.004801509 0.0038825665 -0.0007207608 0.0023670672 0.004357353 -0.004180912 -0.00031168293 -0.001867485 -0.0035350756 -0.0030790204 -0.0040928274 -0.0037105035 -0.00041809445 -0.0014350093 0.0024624104 0.0047328286 0.0029127467 -0.0030097621 -0.0012080222 -0.0026447016 0.003791946 0.004114382 -0.0026765997 0.0007621944 0.0019313688 0.0032699378 -0.002682311 0.004636662 0.0046099257 0.0015723389 0.0025582886 0.0025755055 -0.004491845 0.0024014162 -0.0030476074 0.0004733135 -0.0038950401 0.002629404 0.002205961 -8.732453e-05 0.0005267374 -0.0024158817 0.0036982931 -0.0036718831 0.004854777 0.00073647033 0.0028689597 -0.00071275374 -0.0011267287 0.0008774437 -0.0008120467 0.002384903 0.0009355545 -0.0023404162 0.00048728473 0.001980016 -0.0017984158 0.001306077 0.0022407663 0.004668627 -0.0025715423 0.0013145739 0.0016949666 -0.0024625927 -0.0020880026 -0.0012842463 0.0002508317 -0.002336195 0.0027878392 0.00025888253 -0.0043904143 -0.0023285346 0.0012067719 -0.0038841055 0.0043203644 0.004454706 -0.0013916767 0.0015941449 0.0011058245 -0.0030296051 -0.0048708688 0.0034174416 -0.004994059 0.0033580083 5.2018557e-05 -0.0007325788 -0.00092613 -0.0017512701 -0.000689717 0.0018653758
找 -0.0022323877 0.0024407464 -0.0013523404 -0.003423358 0.0008184952 0.0018446418 0.004452275 0.0029368289 0.0009279661 -0.003820769 0.00048668217 0.00032827863 -0.0009395033 0.00014252262 0.0015299357 -0.0032032453 0.0021534408 -0.0028879808 -0.0029895038 0.0034661777 -0.0031184333 -0.004150518 -0.0015374655 -0.0013465779 -0.002294712 -0.0024086689 -0.0035230261 0.0015295688 0.004592724 -0.0033687637 -0.0011703956 0.00093077496 0.0038920213 -0.0033414578 -0.0014351129 0.0046645096 0.0028617885 -0.0022446876 -0.0024788498 0.0037274016 -0.0011239166 0.0029685274 -0.004071334 0.0044651935 0.004020352 -0.00028871233 0.0020601652 -0.002885791 0.0009843581 -0.0030042343 0.0046544373 -0.0003136606 0.00043994654 -0.002945758 0.003923986 0.00087289745 -0.0004958003 -0.0025593357 -0.004236593 -0.001283766 0.0031631636 -0.0018135882 0.0011453722 0.0030454518 -0.004783849 -0.0044207494 0.0006336868 -0.003325114 -0.0022199946 0.00053432165 -0.0015442646 0.00045047002 0.0028374353 0.0011846088 -0.0041178893 -0.0009793425 -0.0006122724 -0.002790976 -0.0037132446 0.0036898386 -0.0035586434 -0.004466034 -0.0038926373 -0.0047081145 0.0035162065 0.0029393341 0.002870161 -0.002373212 -0.0021582132 0.0025793673 0.0042688185 -0.0012151443 -0.00042583514 -0.002570492 0.00116255 -0.002455614 0.0032817805 -0.0035464137 0.004496568 -0.002824701
金融 0.0022512386 0.0010805223 0.0038105454 0.004438826 0.0031487327 0.004469377 -0.0021464638 -0.0005438528 -0.00011684699 0.0009414782 -0.0022223121 -0.0013642954 0.0003993516 -0.0037659823 0.004870869 0.0028224047 0.0042092027 -0.00029855128 -0.003600168 0.0044012377 -0.00032634474 -0.0045926343 -0.0016938639 0.0009144596 0.0006591771 0.0026886617 -0.0037838435 0.0006562583 0.0048359903 -0.0002041962 0.0049048234 -0.0034364276 -0.00258663 0.004165682 0.0035468908 0.00436569 -0.004283825 0.004288911 0.00014768122 0.0022372124 0.0012663072 0.00070684357 -0.004344832 -0.004100576 -0.0026402734 -0.0046814154 0.0035918811 -0.0023921286 0.004758127 -0.0039454303 -0.001381861 -0.0021259445 0.004581577 0.0008432586 0.0027648038 0.004587343 0.0014320575 -0.00048073288 0.00032076938 -0.0008170293 -0.0037308543 0.0024387897 -0.00026508374 0.00237162 0.002501253 -0.0016927004 -0.00030882284 -0.0026203215 -0.0022153496 0.001102488 0.004043339 0.002379356 0.00083647855 -0.0034367233 0.003928857 0.0017406545 0.0027794354 -0.002490067 -0.0012255304 0.002276163 -0.002228319 0.0038890122 -0.004931874 0.0027004331 0.0008965647 -0.00484099 -0.0039784033 0.0042434335 0.0016139122 0.0014660121 0.0036404245 0.0005183937 0.0034830319 -0.00038687838 -0.0043811016 -0.002424745 0.0006830166 0.0014645252 0.0008605323 0.0011512036
工作 -0.0025270272 0.0010180329 -0.0026692217 0.0010320912 -0.0047174073 0.0045419736 -0.002741004 -0.00055326754 -0.003214184 -0.0035886012 0.0046247877 0.0013332097 -0.0016158824 0.00037785666 0.0029403968 0.004332573 -0.0010684053 0.0021556239 -0.0029878502 -0.0047349534 -0.0026887006 -2.2122636e-05 -0.0020326083 0.0021956954 -0.0024503772 0.00036321953 -0.00035675755 0.00065102056 0.0025206218 -0.0034397421 0.0024091396 -0.0015383183 0.003318347 0.0006639357 -0.00027685286 -0.004083653 -0.0032312935 -0.0007332866 0.003365688 0.0018944917 -0.0030742157 -0.0026920652 0.00043173274 0.0015346203 -0.0006893147 0.0026687896 0.0037101721 0.0024659657 0.0015803017 0.003960276 0.0038318308 -0.0045190337 -0.0036296425 -0.0026834065 0.0004942552 0.00143719 -0.0036606388 0.0029839436 -0.0014399039 -0.002490431 0.0036152806 -0.0038722795 -0.0031457786 -0.0047846106 -0.0008504051 0.0018368387 -0.001401897 -0.002412759 -3.3317134e-05 -0.0037626843 -0.003447849 0.0031888355 0.0035324702 -0.004515895 0.0024182019 -0.0049021053 -0.0035526317 0.004931367 0.00020828797 0.00025765132 0.004626395 0.0047130436 -0.0013386768 0.0046715364 -0.003992727 -0.0011367237 -0.0046947864 -0.0042494587 -0.0008559949 -0.0016442745 0.00089843944 -0.0005790419 -0.0028746622 -0.0041504633 -0.0017931962 -0.0036938284 0.00015737815 -0.0012581814 -0.003131573 -0.0029051465
月薪 -0.00015051384 1.6071368e-05 -0.00031671533 0.00034088455 0.0016965242 -0.00066602044 0.0029713782 0.0021719807 -0.001307758 -0.0038069026 0.0024499772 -0.004182996 0.0045401426 -0.0013755476 -0.0044583725 -0.0025569838 -0.002493937 -0.0033249408 -0.0020190477 -0.0020211898 0.0037345681 -0.0022007786 0.0011322228 0.0038813306 0.0013287244 0.0014560791 -0.0004869555 -0.0028871219 0.0014520437 0.0007681954 0.0007060091 -0.004848861 0.0007820083 0.0008868766 0.0033508604 -0.00016631885 -0.004769913 -0.0021992356 0.0034426348 0.00028964644 0.0021030386 -0.0043661958 -0.0032733988 -0.0047631334 0.0030129096 -0.0017271149 -0.0034099137 0.0019219057 -0.0006197919 -0.0032886355 0.0025143963 -0.0008166502 -0.0037068336 0.004874574 -0.004371616 0.0010246597 -0.0035946122 0.0029124673 0.0013942504 0.00017381785 0.0042441366 0.0023930292 -0.0021294737 -0.002268359 -0.0033374522 -0.0046327943 0.003564232 0.0032594968 -0.0033450949 0.0014042025 0.0017563449 0.0012383391 0.00054277014 -0.0032594 -0.0036961166 -0.00048088422 0.003697792 -0.0031070362 0.003341714 0.002618954 -0.0019903528 -0.0032383865 -0.00012235809 -0.0012257772 0.0023474148 -0.0025374424 -0.0029868858 -0.0025179451 0.0008504456 0.0014098329 -0.0039707264 -0.00021617115 0.002180743 -0.0009395182 0.0017502992 0.0017669844 0.0034827385 0.0039899806 -0.0042303754 -0.0011515189
多少 0.0014072252 0.0038527697 -0.0041429633 -0.0034040087 -0.002916268 0.0027427776 -0.0035150093 0.0031416602 -0.0005415855 0.0033961488 -0.0010654898 -0.0010790084 -0.00082601 -0.0047596614 -0.002405421 0.0048880503 0.0016819746 -0.0016541826 -0.0011470031 0.00084115006 -0.0032743923 0.0019136108 0.0018764664 -0.0022929143 -0.0036272518 -0.003636722 0.0032374999 0.002145019 0.0008291425 -0.004028368 -0.000118691474 -0.0015542309 0.00019127922 0.00061513716 -0.0025998794 0.0023307172 0.001799569 0.00048430543 0.0013315715 0.004743982 -0.0041520447 0.002238453 0.0006993343 -0.0040967218 0.0039653582 0.004206186 -0.0037311118 0.0023508691 -0.0021665448 0.0019414015 -0.0045865593 0.00069051003 -0.004843863 -0.0026041449 -0.004989882 0.0016652606 -0.0037549762 0.002253611 -0.00099548 0.00032695103 0.0049675284 0.0031740228 -0.003792957 0.00306971 -0.0042696763 0.00017680088 -0.0009428342 0.0040246155 0.0014733719 -0.0026908899 -0.0018456066 0.0017014425 -0.004127075 0.0036806539 -0.0038134805 0.0039404575 -0.00053962413 0.0014022924 0.002528118 0.0034686578 -3.664894e-05 -0.00029293774 0.0024872194 -0.00069853896 -0.00029392494 -0.003076943 -0.003965716 -0.0015976392 0.0028093792 0.0006619757 -0.0037563513 0.0016493262 -0.0011011206 -0.00094829034 -0.0048193615 -0.0042045116 -0.0008626818 0.0005632909 0.0015400345 -0.003889368
10 -0.0041976506 -0.00015898654 -0.00087915314 -0.0024994772 0.0022075796 -0.0007734122 0.0033625523 -0.00013181102 -0.00024137786 -0.0029043483 0.0010228902 0.0018659299 -0.003948019 0.0016703615 -0.00043625105 0.0013190587 0.0007221736 -0.00058698934 -0.0041103195 -0.002271998 0.003427389 0.0018109786 0.000623283 -0.003468852 -0.0013110817 0.004512869 0.003633407 0.0018509524 -0.0024003368 0.004219494 0.0015202733 0.0011291071 -0.00044918526 -0.0022227757 0.002168309 0.00033996394 -0.0028133583 -0.0025496553 -0.0016337067 0.0029906472 -0.00016543083 -0.00037997914 -0.0031150233 -0.0043938337 0.0021187998 -0.003657116 0.0031353235 0.0022780434 0.004675336 -0.0010034847 -0.00065524597 -0.0020828694 0.00049583195 -0.00037641637 0.0032500224 -0.004931506 -0.004834627 -0.004207928 -0.0014754087 -0.001467858 0.0040523456 0.0024522166 -0.0047481745 0.004810963 -0.004447065 -0.00047112303 0.0020407094 -0.0015636308 -0.0032843486 -0.0032937406 0.003766263 0.0031464575 -0.00035042595 0.003460072 0.003850909 -0.0028016507 -0.00220913 0.0025013564 0.0012973617 -0.0042644204 0.0028350595 -0.0015873967 -0.004284714 -0.002011404 0.00018673996 -0.0010589659 -0.0035929023 0.0033809682 0.0033503613 0.00023008464 -0.0008249078 0.0034442404 -0.00024329266 -0.0048606065 0.00070347125 -0.0005463711 -0.0009768112 0.002956978 0.0041189445 -0.0027069037
～ -0.0016603398 0.002069767 0.00031840522 -0.00041586952 0.0028637638 -0.0027154004 -0.004312862 0.003832288 -0.0023469478 -0.002408456 -0.003789327 -0.0007552374 -0.0014892011 -0.001126145 0.000127004 0.0027734134 -0.004845058 -0.001148219 0.0016115955 0.0040062917 0.004004472 -0.0038516782 0.001177174 0.0011571501 -0.00012959307 -0.0020113736 0.0036658412 0.002414981 -0.0029107057 0.00036899745 0.0047026007 0.0045640673 -0.0028509211 -0.00456912 0.0049253264 0.0015394334 -0.0027891123 0.0032111397 -0.00062595354 -0.0018653942 -0.0027551518 -0.0013426149 -0.0014759486 -0.0037327593 -0.0035836524 -0.0036539494 -0.0019580578 -0.003241558 -0.0026273113 0.00397998 -0.00061062863 -0.0011271823 -0.0002999031 0.0020497208 -0.001537028 -0.0010442408 0.0033192728 -0.0035336893 0.00048455782 -0.002776501 -0.0012461685 0.0006953869 0.0046771457 -0.004582608 -0.0012525022 -0.00049785385 0.0007502376 -0.002383058 0.0026354683 -0.002396673 -0.0016390849 -0.0036376957 -0.003095659 0.0022243261 -0.00414023 -0.0018650461 0.0026685414 0.004212587 -0.004739659 -0.0026914226 4.9287453e-05 -0.0030672834 0.0023001726 -0.0022724336 0.00032161595 -0.0024690835 -0.0038168202 -0.00078888005 -0.002702979 -0.00276516 -0.0039931373 0.0031580087 -0.00016611768 -0.0016819686 -0.0034875106 0.0040612556 0.00033118762 0.003550874 -0.00369874 -0.004020393
15万 -0.001029483 0.00014719181 0.0022263904 -0.0031919293 0.0011756783 -0.0024782382 0.0016435985 0.00055489596 -0.0022923863 0.00048570195 0.0005484591 0.0032434892 0.002920865 -0.0012304527 0.0024894322 -0.0040417654 0.0019725165 0.0027988036 0.004730111 -0.0022882908 0.004429562 -0.004341681 0.004556529 0.003142939 -0.0046399077 0.0014140061 -0.003593407 0.0032953834 0.003207977 0.0026968755 -0.0028428691 0.00020843791 -0.004894148 -0.0040450017 0.00039158203 -0.0008239425 0.0018350584 0.0037741326 0.00031057838 -0.0024203307 0.0020210827 0.0026925309 0.0035962714 -0.003031848 -0.0022176332 -0.0028260695 0.0014592111 0.0021180916 0.0015808116 0.0026419042 0.0015617167 -0.0027302657 0.0022564046 0.0029449016 0.0010339236 -0.0020735299 0.0024147765 0.0040447777 -0.0033566705 0.0014667967 -0.003001042 0.004376215 -0.0036034496 -0.0037197697 -0.0033726047 -0.0024116074 -0.0037949525 -0.0028873144 -0.0049885693 -0.0032300048 -0.0016874569 -0.0025323688 0.0024077087 -0.0011808509 0.0041789683 -0.00077701965 0.0021757735 -0.000627873 0.0013419334 -0.0032512755 0.0039407015 0.0005759327 -0.0016849607 0.0007103677 -0.00037366012 -0.0018260621 0.00016138796 0.0031663626 0.0017881459 -0.0008197753 0.0029318342 -0.0027582902 0.004045262 -0.00089868344 -0.0019175468 0.0014851526 0.0015886556 -0.004206809 -0.004688964 0.0038259747
家用 0.0034176651 0.003513868 -0.0027980201 -0.00074140355 0.001783642 0.0006270199 0.0021492983 -0.0013004381 -0.0040733884 -0.002878375 -0.0017965692 -0.00012218067 0.00017248979 0.003845537 -0.0010799491 0.0016778088 -0.00082289707 0.0028469292 0.0030095382 -0.0038197183 0.00074342825 -0.0044043763 0.0012104069 -0.004675091 -0.0017895687 -0.003224061 0.0045039672 0.003165285 -0.00056190137 0.00012025377 0.0022404422 0.0039423713 0.004660693 -0.002721573 0.0029286137 0.0005779462 0.0016670721 0.0002727951 0.0013252907 0.002559715 0.0021012668 -0.0015705018 -0.003444194 -0.000631894 0.00019315071 -0.0016118269 0.0021423693 0.0035478594 0.0015919935 0.00065765623 0.0015576738 -0.001718505 -0.004437208 0.0022040545 -0.0041786917 -0.0037738841 -0.0028170573 0.003202145 0.0021478496 0.0026020608 0.0034888908 -0.00072707236 -0.0048175068 0.003226486 -0.004738912 0.0017467467 -0.0013980775 0.0012498247 -0.0006459998 0.004484767 0.0020445418 0.0031218901 0.0039502466 0.0012746328 4.489906e-06 0.0042304536 0.004367903 -0.0040905834 -0.0038468707 0.001687116 -0.0021942281 0.004936631 -0.004442445 0.0017052037 -0.001464681 -0.0025862735 -0.0007664203 -0.0046450715 -0.004933106 -0.0024166435 -0.00091369404 0.004525073 -0.0015294636 0.002350017 0.0036317427 0.0031374758 -0.0034854305 0.0024643773 0.0015671514 -0.0029878835
轿车 -0.004372159 -0.0023184828 0.00450428 0.0008198614 -0.003996136 0.004728825 -0.0016468172 0.0011322629 -0.00049803546 0.004925007 -0.0039714365 -0.004294697 -0.002272231 0.0023156004 -0.0012675016 -0.003970025 -0.001009712 -0.0030237215 0.00467062 0.0014501242 0.0029616887 0.0046082577 0.003875726 -0.00019576121 0.0025503659 -0.0044558877 7.118704e-05 0.0005208077 0.0014595767 -0.0008880007 0.0008102427 0.00031482568 0.0024254997 0.00073955255 0.0012006508 -0.00057915784 -0.0032167197 0.004357484 -0.003585708 0.0027423208 0.0043826327 0.0042128554 -0.004211469 0.004279187 -0.002972052 -0.0047463803 -0.002632056 -0.0022289734 -0.0033967583 0.0032972842 -0.0001015435 0.0029454073 -0.0034633307 0.00097253313 0.0034485878 -0.004273437 -0.0032049362 -0.0034924326 -0.0025126808 -4.0176325e-05 0.0038513662 -0.00022242405 -0.0024727678 0.004805833 -0.004776205 0.0045597907 0.0042376127 -0.0009202375 0.00026233727 -0.0018752229 -0.0030871402 0.0009191744 -0.0020225686 -0.0003378354 -0.0019561653 0.0017052768 0.0009096707 0.0024077678 0.0043192254 0.00077746855 -0.0038699512 0.0025509698 0.004713577 0.00021810038 -0.00027800072 -0.0008376669 -0.0029503948 0.0027910904 -0.0025056994 0.0007079495 0.0040651783 -0.0039256774 0.0007505091 -0.00082574924 -0.0028945475 3.855955e-05 0.002155922 -0.0011755913 -0.0020980113 -0.00454232
需 0.0014440767 0.0035427976 0.0007532104 -0.0032843386 -0.003067087 -0.0010146433 0.0037306584 0.004345621 -0.0044032624 0.0049614804 0.0039689634 0.0036094869 -0.0022145342 -0.004940549 0.002108599 -0.0020019817 -0.0025891692 -0.0040840614 0.00090057123 0.0031078355 0.0021675103 -0.00085137784 -0.004120538 -0.00014748564 -0.0048207752 0.0010471898 0.0012770854 -0.0032260828 0.00090793055 0.0021298495 0.00013722619 0.0030603483 0.0039180527 7.356051e-05 0.0046907905 -0.0014314037 -0.0037546915 0.00436991 -0.004184493 -0.0033867222 0.0016167057 -0.0016945296 -0.0024009554 -0.0045857686 0.0035824515 0.0013754005 -0.004092608 -0.0034847718 -0.0033640962 0.0025248807 0.004306631 -0.00013300637 0.003996011 -0.0026887541 -0.0041229976 0.0015751463 -0.003921546 -0.0035185998 -0.0047145663 0.0040506544 -0.00022569764 -0.0020508766 -0.0015927523 0.0015198034 0.0005436707 -0.0011650878 -0.0019133543 -0.0035856757 -0.0039970223 -0.004383233 0.004655608 -0.0018085272 -0.0014476287 0.0023968802 0.00048655272 -0.0015111787 -0.002997633 -0.0010650395 0.004225975 0.0004169098 -0.002543901 -0.0019228607 0.0014958167 0.0046446593 0.0043490417 -0.0048687574 -0.003541906 0.0026220027 0.0027420437 -0.001686949 0.0014439858 0.0036426736 -0.0022188616 0.00013359264 -0.002251787 -0.0019390988 -0.002218969 -0.0017140037 0.0031623188 -0.00053321896
不 -0.0022907197 0.001598733 -0.0049429815 -0.0047334614 -0.0024482035 0.0038194992 -0.0038687699 -0.0044406117 0.0014013839 -0.0024916588 0.0031390889 0.0018024361 0.0015890351 0.0018361057 0.0033314405 -0.0024216443 -0.00061383983 0.0037603406 0.004184914 -0.0048841704 0.0014959997 0.00087657524 0.0027734875 0.0034929207 0.003199229 -0.004086014 -0.0033831345 -0.0029458015 -7.1629416e-05 -0.0009903731 0.0017776294 -0.002574554 0.0033142576 -0.0019166088 0.0033455174 -0.00019569742 -0.00393309 0.001171581 -0.0012679226 -0.0022873275 -0.0022697926 0.0028504776 0.000701732 -0.0046799337 0.0025565396 0.0016745664 0.00044583017 -0.0024057578 -0.0020061575 -0.002575472 0.00056630373 -0.0049724067 0.0018676375 -0.0025217847 0.0034681503 0.002326855 0.004036987 -0.0028315305 0.0011180094 0.0020522433 0.0025749216 -0.0022752755 0.0006770217 -0.002412039 -0.0015976536 -0.0012870615 -0.00085516414 0.0017393376 0.0027582436 0.004641614 0.00079546217 -0.0019093936 -0.003716567 0.0034146663 -0.0039584977 -0.0025129307 -0.004178102 -0.0040524863 -0.004611032 -0.0022929322 0.00052371994 0.0031094812 0.0009513502 -0.0024789304 -0.0040227873 -0.0044416725 -0.00025109062 -9.799702e-05 0.00096597476 0.0031681033 -0.0025228339 -0.0007900782 -0.004674471 0.0023917556 -0.004977744 -0.0011119617 -0.0012614613 0.0042365575 -0.0027734286 -0.0026190865
需要 -0.0025036389 -0.0035142237 0.003735019 0.0017445446 -0.0010790094 -0.003717488 -0.001171143 0.0022081486 0.00031219842 0.0014104233 -0.0038951803 -0.0007971809 0.0043831076 0.0024753697 0.004401259 0.0011345516 0.0049008653 0.0019960068 0.0009907619 -0.00012825476 0.0012180079 -0.00059095677 0.0033057034 0.00048393616 0.0011898726 -0.0033542006 0.0033355597 -0.0009806468 0.0031016842 0.0026845117 -0.0005051582 0.0045634015 -0.0009019347 0.00034906995 -0.0022398157 0.002262448 0.001697544 -0.0028632593 0.0014533089 0.002588564 -0.00307761 0.0016950751 0.0035145525 -0.00031089736 -0.0019473862 0.0030961633 0.003655699 -0.0044722664 -0.00032120757 0.000926082 0.0009560003 0.003984983 -0.00016401522 -0.0009928565 0.0013954104 -0.004413812 -0.0020706845 0.004246249 -0.004967117 0.0034538563 0.0020546922 -0.0048298775 -0.00075894175 -0.0045846933 0.0035804836 -0.0001017726 0.0017132689 0.0006255545 0.0021159858 5.257968e-05 -0.0022601776 0.0043849964 0.0014085756 -0.0023197108 0.0046785073 0.0011864682 -0.004901991 -0.001801542 -0.004179272 0.0022206865 0.0021374044 0.0013903421 -6.770808e-05 -0.0026168614 0.0007849084 -0.00089871837 0.0026964825 -0.0019309681 0.0042433003 0.0037406804 0.0001129508 -0.0031690989 -0.0037853091 -0.0018957506 0.0028078458 0.0026167152 0.0020072307 -0.0031075631 0.0049256254 -0.0014716887
买 0.0014952361 0.0023479592 0.004036813 0.000460573 -0.0010486138 -0.0018833971 0.0008594487 0.004987995 -0.0012383347 0.001531384 -0.0019633055 0.004414388 -0.0026639116 -0.004730221 -0.0040120073 -0.0041329227 -0.0021587932 0.002183312 0.0020629377 -2.634339e-05 -5.6067016e-05 -0.0015970415 -0.0039331573 0.0003480222 0.002718314 -0.0036408291 0.004695543 -0.0015726648 0.0026626205 -0.0032581687 0.0009479318 -0.0028329806 -0.0001754933 -0.0013914728 -0.0014511626 0.00493386 0.002276414 -0.0041357386 0.00050775567 0.0017924658 -0.00093896035 0.0015202784 -0.00016239239 0.0007266854 -0.0024261426 -0.002328376 0.00461643 -0.0025770653 -0.0013842797 0.0006428682 -0.0045288596 0.002235198 -0.003072738 -0.0028301482 0.0036447793 0.0012577428 -0.0034176684 0.004845266 -0.0027962017 -0.0015121745 0.0006628507 0.0013159364 -0.00322874 5.3470023e-05 0.0033392822 0.0013405448 -0.0042440346 -0.0022451477 -0.004139235 0.00048382208 0.004051553 -0.0025299066 -0.00039542653 -0.0044712727 0.0037165014 0.0021679602 0.0023885588 0.0023677372 0.0016216659 -7.072557e-05 -0.002680472 0.00025109807 -0.0009543542 -0.0042716074 0.002496404 -0.00047571398 -0.0015034454 0.0013214969 0.0003468506 0.0020392938 0.0005623782 0.0044920025 0.0025405674 0.0028175833 0.00042625656 0.0039291475 -0.0008023707 -0.0005968404 -0.0031728405 0.0008007968
涡轮 0.000951441 0.0021425383 0.0025099618 -0.0012933116 0.0035026353 -0.0025200737 0.0045973817 0.0040472094 0.0027511357 -0.00050226646 0.0037084436 0.00304644 0.0033091297 0.0031850655 0.0021257936 -0.0028819793 0.0028650323 -0.0036914009 -0.0029306351 0.0041326825 -0.00350327 -0.0016500927 -0.0028384237 0.004185384 0.004583167 0.0043438235 -0.0045201313 -0.002170632 0.0037459685 0.0008616089 0.00072560366 0.0028315792 0.0014459179 -0.0020365112 0.0004285355 -0.0037080757 0.0030641472 0.0048383 0.0042741187 0.0024709445 -0.0011483557 0.0030553658 -0.0022928815 0.0031077769 0.0012129913 -0.00086120004 0.004948168 0.0029377127 0.003888487 0.0009758924 0.0041746944 0.0040327124 0.0033537736 0.0011694068 -0.00043564243 -0.0017869503 0.0028891182 0.0022125794 0.003674347 -0.0035767823 0.0010808152 -0.0043973033 -0.0017577743 0.0031401878 0.0041969884 -0.0033913099 -0.00064061815 -0.0017291117 0.003487884 -0.002266643 0.004280924 -0.0040506786 0.00096807955 -0.0009769434 -0.00105727 -0.0045024157 -0.0007190169 0.0048945323 0.0010591252 0.0012075966 -0.004752503 0.0007401081 -0.002840845 0.0016822754 0.0030128062 1.4967285e-05 0.0032069422 -0.0029655248 -0.0014963555 -0.0020017677 -0.0015497142 0.0021005059 0.0042364234 -2.6933849e-06 -0.0012915761 -0.0034382057 -0.0043679136 0.0003415579 -0.0022083991 0.00059453864
增压 0.002854853 0.004239835 -0.001978991 -0.0036435402 -0.0009896457 -0.0027078218 -0.0042449394 -0.0019851457 -0.00022493256 0.0022795494 0.00020568958 0.0035279384 0.0028266925 -0.0032805644 5.4908916e-05 -0.0022656792 -0.00456256 0.0012063016 0.0019368757 0.0025709067 -0.0035939913 0.0047350004 -0.0045415545 0.0030131936 -0.00025641033 -0.0041013 -0.0011972445 0.003727748 0.0012221159 3.8537197e-05 -0.0005308925 0.0003291862 0.0009958218 0.0016496591 0.0013728971 0.0036757318 -0.003224939 0.0014034216 0.0041666282 0.0011254591 -0.0044359462 -0.0012643111 -0.00080671534 -0.001533445 0.000271169 0.0048424667 0.0028779358 -0.0033299057 -0.004709254 0.004209309 -0.00038664415 -0.00026884535 0.0018262686 0.0040058196 0.0019313595 0.0035194494 0.001458359 0.0041023213 0.00328309 0.0014596586 -0.0016747164 0.0039648768 -0.0015831429 0.0021109646 -2.1568034e-05 0.004272581 0.0018848865 -0.0012665933 0.0047116783 0.0041515073 0.0029651346 0.00073981285 0.00077853026 -0.0020055019 0.0012037666 -0.003982152 -0.0039438205 -0.0022922957 0.004338056 0.004294168 -0.00173083 0.0005268506 -0.0038132053 0.002889054 0.0040690154 0.00032503624 0.0006907629 0.0031228848 0.0016146367 -0.0014698899 -0.0033201636 0.0017174077 0.0005514785 0.0027004378 0.0029272987 0.0034722313 0.004674728 -0.0024499446 0.0006056414 0.0034258384
肯德基 0.0020549241 0.0013316581 0.0029624952 0.0014760518 0.00499158 -0.0019359039 -0.004090585 0.0032734592 -0.0010000146 -0.0038039838 0.0049459515 0.001877265 -5.7009514e-05 -0.004341232 -0.003999479 -0.0014667148 0.00030144677 0.0025925464 0.0021066768 -0.00471152 -0.0024991392 0.0028249975 -0.0020831747 0.004360215 -0.002274065 0.0037905918 0.0022392399 -0.00037759077 0.0034159068 -0.003117547 0.00040660147 0.0035456773 0.003799431 -0.0013090807 -0.0025433982 -0.00026195776 -0.0037985533 0.0044808444 -0.003924893 -0.001405031 -0.004164879 -0.002327097 0.0027236254 0.0037906142 0.0033388352 0.00063848123 -0.0033791375 0.0011657472 0.003005704 -0.003716906 -0.0010158787 0.0040380824 -0.0021140396 -0.004213538 0.0037439335 -0.0012577218 0.00016659871 0.0024837572 -0.00045443093 0.0041226055 -0.0013027156 0.004201646 0.00018763402 -0.0025956891 0.0011391724 -0.0011827354 -0.0022884463 -0.0023897917 0.0028765453 -0.0026176523 0.0015860009 -0.00340424 -0.0012065517 0.0031895246 -0.0044912836 0.003303798 0.0010284078 0.0024306262 -0.0007563359 -0.0043329857 0.0024655336 -0.0046018544 -0.0018409586 0.0034840088 0.0037105111 -0.0018740976 0.0010834443 -0.0040275557 -0.0013888073 -0.004451024 0.002178769 -0.003283692 -0.0035602849 0.0029812502 -0.0033711314 -0.0012221015 -0.0035058581 -0.0017675792 -0.004423468 -0.00052007334
、 0.004094635 9.97507e-05 0.0025719805 0.0042088088 -0.0017491113 0.003552421 0.0043903785 0.004070321 0.00023989938 -0.0029998857 0.000930103 -0.001335708 0.0022990499 0.0041806754 0.0021869899 -1.8763356e-05 -0.0009148945 0.004501677 0.0037375484 -0.000100104604 -0.004111478 -0.0015520882 0.0029376997 0.003483967 0.00201455 0.0041976906 -0.003919531 -0.00096469885 -0.0026729666 -0.0031331074 1.6357284e-05 -0.0031097145 0.0045093745 -0.0033920847 -0.0043063234 -0.004171925 -0.00211641 -0.0032959532 -0.0038542491 0.0032915296 -0.0015082378 -0.002917803 0.002215399 4.4049695e-05 -0.0013644737 -0.0013046062 -0.00072388165 -0.0033021497 -0.0045716856 0.0023922855 -0.0011423004 -0.00059175864 0.0040395297 -0.004405791 0.0047659213 -0.0017227493 0.0027996246 0.002680243 0.00055336487 0.0023369775 -6.415183e-05 -0.004520698 0.0031947214 -0.0041577793 0.0008986234 -0.001107676 -0.003839032 -0.0040913923 -0.0023192996 0.00013053603 -0.0016462605 0.0013567894 -0.00030774577 -0.00069001457 0.004071228 0.0019790977 0.0027557714 0.00029443158 0.00013145152 0.0030425694 -0.00142007 0.001071889 -0.0048525697 0.00078754174 -8.001877e-05 0.0026896177 -0.0023865663 4.132092e-05 -0.0046822703 -0.0031271926 -0.003944891 -0.003486887 -0.003884102 0.0042934734 -0.0030365759 -0.0026347088 -0.0026612366 0.0034115268 0.000686435 0.0014389376
麦当劳 -0.002879623 0.004640828 0.0030764826 -0.0040655965 -0.0006061476 0.002769079 -0.0012039691 -0.00037403218 -0.0034849546 0.0033322582 -0.004953492 -0.0018892586 -0.0018388592 -0.003692783 0.0014468008 0.0008357717 0.003772541 -0.0009765602 -0.00042322418 0.0010664924 0.0036627958 0.002660424 -0.0013022828 -0.0008469778 0.000751941 0.0034831073 0.0025354014 0.0033130636 0.00412897 -0.001240362 -0.0017457211 0.0034160856 -0.0003053425 0.0032445742 0.001398643 -0.0007614647 0.00034460472 -0.004906932 0.0036936775 0.00014639599 -0.00054105325 -0.0012732279 -0.002714234 -0.00023677945 0.00075604673 -0.0036406808 -0.0015679586 0.0010180236 -0.0047076927 -0.0025760627 -8.450728e-05 0.0006286269 -0.0017861503 0.0011259462 0.0033696182 9.718817e-05 -0.0014914805 0.0013201791 -0.0048326664 -0.003114434 -0.00023169769 -0.0020147455 -0.0017351424 -0.0018299383 -0.0021470273 -0.0035966001 -0.004399582 0.0034869332 -0.0006745802 -0.001692273 0.0028541237 0.002479752 -0.0014115644 -0.0007527112 -0.0018572337 -0.0048686424 -0.0023851315 -0.0023181962 -0.0049286555 -0.0030821655 0.0024078046 0.0033534607 0.0040393835 -0.004889757 0.004994645 0.0045965062 -0.0035683475 -0.0029104042 0.0031789644 0.0019351132 -0.002634483 0.0014404044 0.0032790257 0.00013831677 -1.13565475e-05 -0.0008013821 -0.002396294 0.004075299 0.0029953774 -0.0044301157
已 0.0023554573 0.001759693 -0.002948309 -0.0039997483 0.0024623633 0.00064403284 0.001069854 -0.004360927 -0.001474607 0.003823042 -0.00496746 -0.0012350488 -0.00015189825 0.0025140233 0.0010436778 -0.0035572997 -0.0031240396 -0.0020961862 0.004107062 -0.0029394142 -0.004313322 -0.0049558436 0.0020348853 0.0013999613 -0.0037240612 0.0046434803 0.0033368552 -0.0039525963 0.0030251667 5.1659532e-05 0.004746342 0.000987683 0.001943423 0.0013513467 -0.0022713058 0.0024653343 0.004552827 -0.0019618904 0.00079504587 -0.0037825452 0.0040986678 0.000356148 -0.0019263178 0.0047604814 0.0037343977 0.0009846897 0.0036718566 0.0009672027 -0.0047613215 0.0011347304 -0.0046941307 0.0027194852 0.00024166144 -0.00054713245 -0.0030791895 -0.0034847246 -0.00019826181 -0.00022711651 -0.0030674622 0.00491976 0.0028925482 -0.0049978686 -0.00084301876 0.002220923 0.0030517234 0.00033515831 -0.0036761207 -0.0018800998 0.0015155636 -0.0017299003 0.0008188421 -0.0038084763 0.0033719381 0.002620453 0.0019749193 0.0013861535 0.0029109986 -8.2273036e-05 0.0037404401 -0.0040825545 -0.004283244 -0.0046369922 0.00015458325 -0.0024051464 -0.0018347357 0.0033292593 -9.536743e-07 -0.00094110146 0.0047604498 0.0010722703 0.00432121 -0.004907903 0.0020521707 -0.0037389235 -0.0013921005 -0.00012190826 0.004135308 -0.0035339904 -0.00400132 0.004362668
下架 -0.0022522097 -0.0016816657 -0.0046743774 0.003435107 -0.0003328519 0.0029378757 -0.00013942597 0.0023459191 -0.0040364102 -0.00088743214 0.0047076 -0.003067978 0.0032334747 -0.0027509665 -0.003727613 0.0033723153 -0.0033652396 0.0023036296 -0.004621197 0.0049111843 0.003605323 0.0049436735 -0.0031897938 0.0017347736 -0.0012636189 -0.0018929362 0.001256357 -0.0011388427 -0.001010173 0.003346066 -0.002502051 0.0005732244 -0.00016257027 -0.0015098131 -0.0046991874 0.0008083419 0.0030595297 -0.0026976638 0.0028318902 -0.0043197726 0.00014884118 0.004309873 -0.0011772292 0.003766179 0.0029098643 -0.0026620268 -0.004457007 -0.0009729862 0.00056997454 0.0043813037 0.00049709296 0.0008160565 0.00031460822 0.0013849884 -0.0012009006 0.0009171921 0.0012803753 -0.0031195558 -0.00063236104 -0.0037855045 -0.0020317126 -0.002955923 -0.00097269705 -0.00084813405 0.003969758 -0.0041728457 0.0005389303 0.0013874024 -0.0016589283 0.00027334644 -0.0016314315 0.00037119212 0.00027722493 0.0006188499 0.0047754385 0.0019855644 0.003128822 0.0037893578 0.0030504968 -0.0016708898 0.0017536478 0.0030668536 -0.0023309498 -0.0040175146 0.002539557 0.0009576692 -0.0013482701 -0.0036114752 -0.00054537645 0.0012040082 -0.0014139621 -0.003802008 0.00030747429 -0.0013594455 0.0012663798 0.0027530422 0.0032018516 -0.0046377396 0.004574719 -0.0006519309
奇葩 0.0010148264 0.004442538 0.0029378803 0.0023226766 0.0029812325 -0.004762892 -0.00015555602 -0.0007503205 -0.00010623643 0.001561508 -0.0010953986 0.00043678284 -0.0019121747 0.0016585528 0.003179201 0.002395404 -9.805383e-05 0.0022021336 0.001981305 -0.0019956492 -0.0011975586 0.0039716437 -0.0029689644 0.0033653174 -0.004509034 -0.0033181119 0.004826571 -0.0016945624 0.0029041572 -0.0034865432 -0.0033558141 -0.002532841 -0.0036886511 -0.0042375624 -0.0017343331 -0.0017445199 -0.00041696196 7.764157e-05 0.0035238275 -0.0012811457 0.000273115 -0.0040132822 -0.004840903 -0.0013099813 0.004178256 -0.0046583847 -0.0044137645 0.001758039 -0.003045277 0.0016572853 -0.003045597 -0.00056097936 0.0033493973 -0.0035961252 -0.00082620373 -0.0005074949 0.00044355588 0.004776707 -0.0007169647 0.0017695879 -0.0038891695 0.0014433032 -0.002445339 -0.0038704532 -0.0021894712 0.0040388843 0.000782019 0.0036053164 -0.0009850874 0.0016189218 -0.004741039 -0.004481695 -0.0034660292 0.0011954252 0.0028376905 0.00449231 -0.004698217 -0.002373408 0.0031852517 0.0037062094 0.0020868117 0.0023018736 -0.00207811 -0.00054135453 0.0014612842 0.0033236435 0.0047704782 0.004626847 -0.0039458806 0.0039355326 0.0039836485 0.0027243472 0.004061194 0.0030835345 0.001501034 -0.0015276026 -0.001520338 0.0021559233 0.0014425474 -0.00016351882
产品 -0.0026138674 -0.00200265 0.002656822 -0.0017504101 -1.2521632e-06 -0.00097278785 -0.003863872 0.0031895302 0.0011432278 -0.0006583957 0.0033254465 0.0012985747 -0.00016687624 0.0032959469 0.0048945323 0.0021413625 -0.0049799834 -0.0016330665 0.0016377489 0.0040221773 -0.0008194917 0.0016320455 0.0015244996 -0.00045680813 -0.0022336792 0.0031321868 0.0015655998 -0.0015891546 0.00034894515 -0.0032592278 0.0038553933 0.0015175492 0.0028166296 -0.0045206808 0.004109702 0.0010505132 0.003710308 0.0037830863 -0.00048175873 -0.00271455 -0.0041963253 0.0035494603 0.004035798 -0.003388003 0.00083845016 0.004358585 -0.0031444565 -0.0023770677 -0.002460892 -0.0042474526 0.00026820647 -0.0049311034 0.0031003132 0.0014803945 0.0037624855 -0.0028200478 0.0029305518 -0.0047408408 -0.002206189 -0.0025415802 -0.0031583803 -0.0027100348 -0.000291117 0.0027586226 0.0027592569 0.0021700794 0.004317268 0.0034155361 0.0028585847 -0.004285117 -0.0039550504 -0.0033794404 0.0048541883 0.002955446 -0.0013777548 0.0019762008 0.0032479176 -0.0018180544 0.0038651181 -0.0039919633 0.0020037778 0.001994966 0.0013323426 0.0023300927 -0.0045225136 -0.0019238966 0.0025597303 0.000912196 0.00487883 0.0027339822 -0.004652088 0.0006703455 0.0047143707 -0.0032239384 0.0029787729 0.0023282128 -0.004530935 0.00014001969 -0.0032095974 0.0031122165
厂商 0.0037671048 -5.850382e-05 -0.0025335758 0.00015386567 -0.002563151 0.004339058 0.004696573 0.00086623384 -0.0033725684 -0.0035265428 -0.0048306156 0.0020183036 0.0039314944 -0.0031214368 0.002135296 -0.00016958872 0.0015792251 -0.0047808527 -0.0018728708 0.0039339336 -0.0032717586 0.0043734238 -0.0028524983 -0.003516404 -0.004849266 -0.0018927895 0.0038547628 0.0042014457 -0.0040279888 0.0006942679 -0.0037010778 0.00052964967 0.0028512413 -0.0021755833 -0.00069925375 0.0016568946 -0.0031110358 0.0020635105 -0.0013941817 -0.0021145768 0.0037145875 0.0031454843 0.0039115613 -0.0020310157 -0.0008722595 -0.001611229 0.002351582 -0.002290116 0.0034958813 0.00029417267 -0.0019396872 -0.003908285 -0.0029542493 -0.00039995136 -0.00089753047 0.0029896554 0.0022771475 0.000119092874 0.004752079 0.0035307948 0.0043532737 -0.0018154627 -0.0018224097 -0.003282783 -0.0012588333 0.0017949347 0.0026808758 -0.0024654078 0.0008954797 0.004341036 -0.0047470913 -0.0037607371 0.00029754173 -7.096492e-05 -0.0017028039 0.0002913056 0.004899201 0.00086390367 0.0019836277 0.0043511037 0.0009141229 0.0031316318 -0.0034106856 -0.004968005 -0.0023898953 0.003313412 -0.0048389393 -0.0024664635 0.0017126161 -0.0041552843 -0.0012213336 -0.0014359397 0.002776117 0.0013422272 -0.00068219146 -0.0030330627 -0.0017554467 -0.0011398715 -0.0044675022 -0.0017184925
背景 -0.004775999 0.0035414072 0.0026699947 -0.0039949855 0.0011058343 0.0024394984 -0.0037826216 -0.0038206826 0.00029591518 -0.0034878694 -0.0042227553 0.00029395055 0.002295033 -0.00026860973 0.0024127895 0.0019945838 -0.0017461192 0.0015360438 0.0013152314 -0.0014562076 0.00085222255 0.0024764054 -0.004494604 -0.0025272549 -0.001371373 -0.001648292 -0.0011116732 -0.0034919516 0.002408401 -0.0026123917 -0.0042902934 0.0041094227 0.0005885218 0.003215964 -0.0023649202 -0.0022521669 0.00048472127 0.0024195164 -0.0016182803 0.0018148613 0.0028414885 0.0028915089 -0.003956968 -0.0021186154 0.0042046895 0.0029899944 -0.0014541226 0.0009724768 -0.0025489025 0.00012457231 0.0026563895 -0.004497229 0.0023255842 0.0041233376 -0.003267169 0.002889053 -0.0008092248 0.0029054023 0.0019219378 0.0022957646 -0.0013900334 0.002054546 0.002512849 -0.004624171 0.0029332852 0.0041614724 0.0016276645 -0.0021426051 0.0012813872 -0.0035209046 0.00026644627 -0.0004978399 0.0005245162 -0.00042763585 -0.0025472832 -0.0012815064 0.0006950181 -0.00096311374 0.0014073001 -8.8229775e-05 0.002963597 0.0008429275 0.0048534647 0.0009222394 0.0014429814 -0.004481094 0.0015855492 -0.0049627493 -0.0023993694 0.003821887 0.0037085535 0.0035941852 0.0018104087 0.0036887862 0.0009157406 -0.0047184746 -0.0011596901 -0.0023203634 0.0011680238 -0.0015725303
融资 -0.001800593 -0.0014825116 -0.0046651424 -0.0036186164 0.002021207 0.0020759725 -0.0044713793 -0.0039224313 -0.0026347362 0.0041384352 -0.0028128987 0.0018065162 -0.0037308917 0.0046757758 -0.0047725337 -0.003806442 -0.003830434 0.0018107579 0.004949352 0.0009798924 0.0027923482 0.001945971 -0.003000792 0.0043410882 0.0046350732 -0.0013960474 -0.0033469372 0.0040935148 -0.0040391907 -0.0035354835 -0.0019939924 0.0049785012 0.00039905962 0.003107368 0.0015985719 -0.00037704827 0.002304248 0.0010082847 0.0013975669 -0.0031438046 0.0013449094 0.003188786 -0.0011444157 -0.00075701484 0.0041765543 -0.0017732799 -0.0035416526 0.0041897 -0.00078863977 0.0009878888 0.0041602654 0.001423466 -0.0023560578 0.0030041877 0.0047639217 0.0024448675 -0.0005788179 -0.0047354526 -0.0040858053 0.001580466 0.003367954 -0.0009687077 -0.0029759037 -0.0034410185 -0.0044993805 -0.00016383594 0.0012458316 0.0030446164 0.0020776866 -0.0027265768 -0.00035787048 0.0040749144 -0.0039622462 -8.134777e-05 0.0032886881 -0.0034281444 0.0021212087 -0.0013910448 -0.00082865544 -0.00034849113 -0.00023578387 0.004281196 0.0044378145 0.0049006846 -0.004413031 0.0024435222 -0.0035358584 0.00082227355 -0.0030895465 0.0027136742 0.004270481 0.0033512646 -0.002804861 -0.0034640608 -0.0027291859 0.00030659372 0.004845931 -0.00121064 -0.0015891064 -0.0040751984
租赁 0.0003788895 -0.0044025565 -0.0020393932 -0.0009474475 0.00041719992 0.0032629278 -0.0033513564 0.00090104993 -0.002499876 -0.0002296255 -0.002356982 0.0033788327 -0.004135632 -0.001993754 0.0049150744 0.00080514466 -0.0020771085 -0.0005402155 0.0014029485 0.004143865 0.0019415272 0.0028380463 -0.000598412 0.0020159418 0.0034526177 -0.0011005991 -0.001058436 -0.00163983 0.0049468577 0.0030270722 0.0044404026 -0.0027002452 -0.0016989184 0.0046037715 -0.0010146056 0.0009752279 -0.0018887043 0.0048772832 -0.003952681 0.004357191 -0.002054315 -0.0028234315 0.0013045869 0.0032640817 0.002096158 0.0017217826 -0.0038839555 -0.0025133567 0.0030485876 0.0030686911 0.0045220237 -0.0028012353 -0.003206172 -0.0020133012 0.00402393 0.004782604 0.0023681638 -0.004840187 -0.0037996082 -0.0018517303 -0.0014410715 -0.001179018 0.0027476312 -0.0035833735 0.00041509792 0.0037322063 -0.0016457278 -0.002548511 0.002267844 0.0022163354 -1.6014092e-06 -0.0040047937 -0.0033590333 0.002863178 0.004555472 0.0012053214 -0.001145879 -0.0045343265 -0.0005514878 0.0046862764 0.00046756584 0.0016587712 0.002243293 0.0012909342 0.0042769043 -0.0026713412 -0.0035776806 9.105634e-05 -0.0017900299 -0.004454117 0.0007895315 -0.0021772091 0.0030228812 0.001244673 -0.002002681 -0.0026051062 -0.00037176488 2.3113098e-05 0.0022240984 -0.0015154737
公司 -0.002584493 -0.004411906 -0.002223823 3.2780226e-05 -0.004177789 0.0027263127 -0.0046106195 -0.0012315041 0.0044380063 -0.0022591054 0.0026879208 0.002947051 0.0046130475 0.0026170611 0.004331367 0.0018451861 -0.0033377933 0.0011446192 -0.0003898982 0.0039207116 -0.002891807 0.0031472165 0.002544377 -0.0007444136 0.0039072586 0.0006062407 -0.0002203309 -0.0030184912 -0.0015213192 -2.0297244e-05 0.002303802 -0.00089136837 0.0030060494 0.0035857148 0.00086578727 -0.00478056 -0.003920145 -0.0040289303 0.0015944643 -0.0005110819 0.0007726806 -0.0037088823 -0.0011464858 0.004058296 -0.00058306335 -0.001476984 -0.0033124373 -0.004788521 -0.0006019282 0.0032933373 0.0026308065 -0.004879961 -0.0044632247 0.001970183 -0.00072806934 0.0038066665 0.0025195666 0.0034340816 0.0033975532 -0.0012108558 0.0012685503 0.0016736197 -0.0018175505 -0.0026595509 0.00065212836 -0.003502519 -0.001956594 0.0044355104 -0.00049979286 -0.0046751094 0.0034030061 0.003934621 0.00067279395 -0.0039637964 0.0041771457 -0.004114771 0.0049263146 -0.0039468454 0.002180512 0.0017069839 -0.0013836545 0.0015767533 -0.0025574844 -0.003761463 0.0041402197 0.004280595 0.0048749615 0.0035637952 -0.0046801125 -0.004343604 -0.0035254597 0.0038154563 -0.0014849668 5.641021e-05 -0.0014429342 -0.003803178 0.0026858454 -0.004839469 -0.0033557527 -0.0044591664
应该 0.0010348135 0.0013813395 0.0043901037 0.003116888 -0.0040190844 0.0029219827 -0.0027193385 0.0015781126 0.0013598949 -0.0044744085 -0.0033024154 -0.002898423 0.0044008093 0.0006777961 -0.00076952856 0.0026314934 -0.001005779 -0.00301844 -0.0030470937 -0.0015727377 -0.0033919972 0.0041453848 0.0037579844 0.0029495852 0.0032069022 -0.004430367 0.0030068317 0.0018214015 -0.002505785 0.0035273694 -0.0034341896 -0.00011397945 0.004675092 -0.00013411511 0.0006471067 -0.0046016444 0.003000063 -0.0025585901 -0.00047717942 -0.0011411512 -0.001758601 -0.004595763 -0.0026190663 0.0009798044 -0.004604547 -0.0038511865 -0.0039504427 -0.0029852723 -0.0038268273 -0.0021585773 -0.002769863 0.0043683704 0.0029867664 -0.004864735 0.00074150926 -0.0010425542 -0.0038291323 0.0045724586 -0.004998716 0.003691893 0.0046396926 -0.0030410558 0.0030315043 -0.004613366 0.0004848987 0.0041764807 -0.0003544516 0.0028004698 0.0007273429 -0.0019442993 0.0023837066 0.0012595421 -0.0027300857 0.0029546572 0.0018019779 -0.0046626604 0.0031976644 0.0044469805 -0.0034045856 0.002739943 -0.0010062046 0.003511371 0.0007799645 0.0025759963 -0.0016200244 -0.0035334472 -0.004680603 0.0012649754 0.00013814727 0.004234775 0.0010087509 -0.00012366474 -0.0026233876 0.0035357997 -0.001344471 0.0020689834 0.0024680197 -0.0021154261 0.0024666674 -0.0047748117
申请 -0.003959794 -0.004599488 -0.0006159162 0.0012792842 0.0019350983 -0.0042194016 -0.0035100365 0.0031346716 -0.002274446 -0.004225455 -0.0031861442 0.0009005624 -0.000486176 0.0010848986 0.004661645 0.002926197 0.002790696 0.001155307 -0.0006263964 -0.003472852 -0.0040013706 0.0022867965 -0.0040866593 -0.0017075711 -0.0049910042 -0.00081900414 0.0012720008 0.0007648044 0.002848925 -0.00400558 0.0023758793 -0.0001572161 0.0015214765 -0.0025558667 -0.0040247277 0.0028718952 -0.0036993742 0.00088807894 -0.004250246 -0.0011491554 -0.0019795673 -0.001129328 0.004050224 0.0031937696 0.0024140566 -0.0032605426 -8.011423e-05 0.002815906 -0.00025977194 0.003668298 0.0045048324 -0.002518888 -0.0016974497 -0.0028312956 -0.0048178486 0.0030367877 -0.004425309 -0.0044211214 -0.00077172276 -5.5888668e-05 -0.003594107 -0.0025042503 -0.00083464617 0.0010222225 0.0022895508 0.0015441529 -0.0034034299 0.00030455645 0.0043096263 0.0038506845 -0.0030555003 -0.0014702415 -0.0044852365 -0.0020352863 0.0014170678 0.0032792268 0.0041998727 -0.0012319826 -0.004119946 3.638817e-05 -0.0002673734 2.8705224e-05 0.0018286388 -0.0045278776 -0.002759114 -0.0022428094 0.0023311996 0.004454771 0.001005616 -0.00019702315 0.0010359217 -0.0037306105 0.0031273412 0.0003905571 0.0041795075 0.00106658 0.0026334757 -0.0011541427 0.0032465542 -0.003325026
读 -0.0041341293 0.002981184 -0.0028859382 0.0005305582 0.0019103424 0.0008460833 0.0035530748 -0.0024575656 0.0020488878 0.003218567 -0.0033600228 -0.0012744104 -0.0031459176 -0.002715441 -0.004038775 0.0036098324 -0.0015361302 0.003413246 0.0036402466 0.002911277 0.0006694072 0.003795025 0.0012480807 -0.0038939845 0.0041801194 0.0040230304 -0.0048977314 0.0032427367 0.0049094064 0.004862164 0.0032376582 -0.0035014783 0.001678437 -0.0040895967 -0.00457781 0.0030078776 0.0031427238 -0.0046232706 0.0028066612 0.0016292385 0.0016491492 0.0020116013 0.0004182607 0.0006232257 0.0033798134 -0.00219191 0.002622983 0.0003720224 -0.0003178604 -0.0028146463 -0.0002470608 0.0016352944 -0.003208587 0.00018519536 -0.0017198424 7.590838e-05 -0.0043507507 0.0028970018 -0.003288987 -0.0044443496 -0.004426389 0.0009081047 -0.0027867828 0.0016605435 0.0035258355 -0.003152532 0.0011058734 0.0013476848 0.0045356257 -0.0039452966 -0.0031289933 -0.004763259 -0.0031423843 0.00044580502 0.0028391434 -0.0014368491 -0.0012749778 -0.0010526879 0.0011978867 0.0033399854 -0.002637003 0.0035944013 -0.0041576354 -0.0040787435 0.0015387367 -0.002244978 0.0018695453 -0.0011538279 -0.0038771557 -0.0022193373 -0.001763047 -0.0049897605 -0.003941522 -0.0019956636 0.0013661729 -0.004694334 -0.0035299337 0.003312583 0.004824708 -0.0031706404
懂 -0.0029694468 0.002011906 0.0013282276 -0.0029522257 0.0034586843 0.0034963815 0.0016328674 0.0019573784 -0.0043749106 0.0048189843 0.004434596 0.0011257976 7.766718e-05 -0.0025124573 0.0047257114 0.0040983455 0.0047367197 0.0016407762 -0.002301691 0.0041584987 -0.00033136783 -0.004043043 0.0024541337 0.0045766886 -0.0006774706 -0.002905023 0.0022520525 0.00013351394 0.0031245463 -0.0013951086 0.004807799 -0.003599987 -0.00084782904 0.004643919 -0.00423306 0.001812493 0.00082742935 0.0024623824 0.0019897288 -0.001748252 0.0014093895 0.0016983687 -0.0036213682 -0.00015730225 -0.0041119205 0.0013489556 0.004955613 0.0009312569 0.0041038655 9.979121e-07 -0.002574746 -0.003103531 0.0003959341 -0.0023286438 0.004964075 0.0019215117 -0.00019272463 0.0044504004 -0.0029855096 0.0028318288 0.000536439 0.0045832302 -0.00078519527 0.0045987703 0.0029905299 -0.0033969795 0.00093172025 -0.0048162793 -0.004579068 -0.00077499636 0.0013660751 4.7921203e-06 -0.0004185601 0.0014255797 0.0019802628 -0.004228731 0.00028075557 -0.0046953643 0.004491465 -0.00025695283 -0.0029881399 -0.0040297215 0.0001898557 -0.0016927368 0.0026127375 -0.0038968013 -0.001824047 -0.0024015247 -0.00064941775 -0.003470283 -0.0017491877 -0.0014971923 -0.0045912103 -0.0045654564 -0.0025987022 -0.0020553237 -0.0044924044 0.0021209833 -0.0032136193 -0.0029694599
西方人 -0.0017214858 -0.0035554073 0.0043447586 -0.003939595 0.0024131779 0.0018173843 -0.0029453933 -0.001068539 0.004535781 0.0041772677 0.0001581274 0.0013177646 -0.0012857895 -0.0006337152 -0.0032898844 -0.0021565706 -0.002825716 0.0012944825 -0.0026548903 -0.0009496659 0.004873628 0.0010038163 -0.0006014379 -0.0040926593 0.0015438376 -0.0021586418 0.0038996767 0.0013011135 -0.0032777786 -0.0002933843 0.0017833407 0.0007266565 -0.0005422337 -0.0024753117 -0.0026478588 0.0011525787 3.847014e-05 0.003312015 -0.0040701083 -0.0041182144 0.0022139759 0.0028862162 0.002231006 0.003907809 -0.0037245438 -0.0034624152 -0.003926251 0.0022918633 -0.00055420585 0.0035447348 0.0043479623 -0.004887502 -0.0006373627 -0.0005128472 0.0017005722 -0.00049883546 -0.0012711799 -0.0033796518 0.0015194584 -0.0017620039 -0.0040325187 -0.00086292485 -0.004427735 0.004118653 0.0011768164 0.003981718 0.0049982984 0.001424036 0.0016671661 -0.00095785037 -0.0047615045 -0.0014009881 0.0044112876 -0.002804457 -0.0026052308 -0.004107867 0.003214039 0.0035220264 0.0038580121 0.002292999 0.0030240081 -0.0012365913 -0.004244481 0.0010351413 0.0036358554 -0.0018208004 -0.003994649 -0.00024220813 -0.0012642271 -0.0007688794 0.0032632025 0.0014848751 -0.0007671863 0.0025443868 -0.0032674556 0.001717784 -0.000355287 0.0014776746 -0.0014017122 0.0032033008
男朋友 -0.0049324553 -0.0010099448 0.0022967425 0.0037683146 0.003796745 1.7513521e-06 0.0017166785 -0.0018111169 0.0024555908 -0.0026751887 -0.0032833982 -0.0039906083 -0.003670764 0.0021869983 -0.0042327866 -0.0020305633 0.0020669163 0.0042470032 0.003557656 0.003555052 0.0018552239 0.002954823 0.0036674654 -0.00035730237 0.0048070354 -0.001372335 0.0041321274 0.002345365 -0.0044011353 0.0032386947 -0.001978339 -0.0005148137 -0.0044875084 -0.0036916179 0.0019744867 -0.003028044 -0.0035465937 0.0049272915 0.0013104784 0.004395486 0.0018626512 -0.004511491 0.003839912 -0.0022224325 -0.0005007563 5.6367368e-05 -0.004770751 -0.0036955313 0.004942348 -0.004949853 0.0042093275 -0.001975544 0.00017697504 -0.0011011951 -0.0008871583 -0.0049245143 -0.0045118085 0.004984701 -0.001809448 -0.004098316 -0.003580534 -0.0011888815 -0.00078193424 -0.0038570273 0.00068688113 0.0017549861 -0.0021559268 -0.0020663047 -0.00034364127 0.004307528 -0.0028423779 0.00018944638 0.0048307152 -0.0033982717 -0.0025905531 0.00410623 -0.0046939175 -0.002501996 0.0023194132 0.000618652 -0.003491832 0.0023354385 0.0019720765 -0.0022882628 0.0035095233 -0.004527102 -0.00086903805 -0.0032614684 0.0034054127 0.0021016216 -0.001299442 -0.002622509 0.0037376983 0.0049673123 0.0019368255 -0.001350438 0.0001120395 -0.0040766657 -0.0033766837 -0.0013751239
突然 0.004339774 -0.00042394223 0.001849154 -0.0013024474 -0.0025632954 -0.0036561226 0.00053192535 -0.0029250926 -0.002452852 0.0024548587 0.0032066498 -0.0019161028 0.00019810209 -0.00074183894 0.0049978783 -0.0011019914 0.0027350034 0.002760908 0.003235682 0.0032458492 0.0032170499 0.0046539763 -0.0041436236 -0.0037857187 -0.0029144536 0.004599428 0.0027850089 0.0038634818 9.270711e-05 0.004240496 -0.0012092052 0.0026497552 -0.00230864 -0.0035735709 0.004860007 8.367654e-05 0.00026325462 -0.0017946255 -0.0014971606 -0.004191261 -0.0029649222 0.0011087661 0.0042335344 -0.0022600745 0.003687094 -0.0039017748 -0.0033273762 0.0018374873 -0.000855125 0.00012486335 -0.0048861513 0.00087037217 -0.0011313225 0.0028757825 0.00013873912 0.0044946047 -0.0025230306 0.0033848863 0.0021922109 0.0011361991 0.0029035965 0.0025234115 -0.00075270236 -0.0038922597 0.00012032967 -0.00050326576 -0.0010983425 -0.002241717 -0.00394327 -0.0006049401 0.0038640667 -0.0005052509 0.0042237723 -0.00064170826 -0.0041576503 0.00022338377 -0.0021657234 -0.00077946065 -0.002917438 0.0047426308 0.00017812895 0.0046102265 -0.0011356573 -0.0028329003 -0.0015052473 -0.003024371 0.0024950546 0.0001418693 -0.0013353813 -0.003943911 0.002235462 -0.003710935 0.0045134835 0.0027012145 0.0028815754 -0.0024385059 0.0027169422 0.0011510528 0.0025875275 0.003452126
说 -0.0009600017 -0.0022612207 0.0008812188 0.0046808356 -0.003806924 0.003195038 0.004162181 0.0020639752 -0.0030737305 5.5962708e-05 -0.0006692759 -0.0048291283 0.0042961575 -0.0021784084 0.0022647781 0.0043560257 -0.0008474421 0.0019720616 0.0012241709 0.0007348191 0.0017777411 0.0003819461 -0.0018336773 0.0012026797 0.0026389747 -0.00080433255 -0.000608169 -0.000115615316 -0.0027102171 -0.004216618 0.004788896 -0.0020362835 -0.0005481704 -0.0010701376 -0.004375105 0.0016163606 -0.000718297 -0.003910494 -0.004085023 0.0013198834 -0.0045644213 -0.0023552715 0.0041251024 0.0008007395 0.0031549362 -0.0026658094 -0.003189267 0.0021869182 0.0039879354 -0.0011202628 -0.0038335805 0.0024245358 -0.0012476284 -0.0015255569 -0.004561801 -0.0033384329 -0.0014184052 -0.0015621942 0.0034201853 0.0021804832 0.00274158 -0.0019810812 -0.0028780806 0.004651054 -0.0043202275 0.0036461633 0.0019238014 -0.001642254 -0.0022663192 0.0043207593 0.0011235224 -0.001319797 0.004923784 -0.0039182142 0.00028593699 0.003977916 0.0042930515 -0.0048118564 -0.00036778115 -0.0045196936 -0.0025658107 0.0015985719 0.001257271 -0.004371267 -0.0044569797 0.0023715803 -0.0028791218 0.0008841567 -0.0014818055 -0.003425696 -0.0015294938 -0.0009769239 0.0028976593 0.0046568094 -0.0038038618 0.002711454 -0.0044252933 -0.0011791354 -0.003099585 0.003667782
要 0.00092700357 -0.0045693154 -0.002608844 0.0014258195 0.0022885827 -0.0024281568 -0.0037535965 -0.0047544395 0.004695412 -0.003696627 -0.002131121 -0.0004630424 0.0016357834 0.0026774728 -0.0009048511 0.00077544665 0.0044546453 0.0007028561 -0.0048466413 0.0049673542 0.0019908203 0.0002964777 0.0012766025 -0.001305161 -0.0036420822 0.002688021 -0.00038373098 0.0031768717 -0.002515208 -0.001700623 -0.000996436 0.0012324597 0.003166466 0.0044941315 0.0012001414 0.0043247445 0.0024875295 -0.002718507 -0.0035705452 -0.0015583825 0.0012153625 0.0025079446 0.0039424757 0.0044986596 0.0025751675 -0.00033678906 0.003685616 -0.0020054136 -0.0025303601 0.003963175 0.0033551492 0.0017491789 -0.004277616 0.0023911824 0.00018303934 -0.0024306905 0.001716258 -0.0035714451 0.0031339042 -0.0014613206 0.0020536636 -0.002544443 -0.0037897108 0.0004920368 -0.0011186313 0.004204372 -0.00047767116 -0.00298752 -0.004369865 0.0040466897 -0.0049883258 0.00040401658 0.002718212 -0.0013872855 -0.0034432653 0.00024863658 -0.004031348 0.0042566564 -0.0002926034 -0.004784353 0.0005195034 0.0005496959 0.0027378397 -0.0038617877 0.0027339188 0.0013488466 0.0035315054 -0.004912625 0.00089214277 0.0026275036 0.0035694195 0.0022196136 -0.0017053592 -0.0026245366 0.0034414865 0.0018528616 0.003471368 0.0034517264 -0.001439404 0.0037595816
冷静 9.7686425e-05 0.0017863349 -0.00049033575 0.004071312 0.0031840736 0.0017880253 0.0025358032 0.003601133 0.002917396 0.003018382 -0.0018205498 -0.0035433983 -0.0024425304 0.004376773 -0.0015575103 -0.0017272853 0.0028452724 0.0014896472 -0.0011566125 -0.00408595 -0.0036903904 0.00045687612 0.0015804134 -0.0025635825 0.0013086209 0.0010290402 -0.00474052 -0.003390172 -0.0028119653 0.000309031 -0.003828578 -0.0014543671 0.0024741339 -0.0036290735 0.0029263636 0.0048387535 0.0031033233 -0.0010548793 0.0036046486 0.003835273 -0.0025107318 0.0043394463 0.0008945591 -0.001670103 0.00028374977 0.0014296519 0.0012756968 0.004875251 -0.004432123 0.0049911942 0.0013286793 0.00161799 -0.0026943355 -0.0013257784 0.0028551659 -0.0038164079 0.00023347558 -0.0020330285 -0.003459448 0.00075185485 0.0036738934 0.00061440887 -0.003737651 -0.00047587883 0.0047183624 -0.0045534233 0.0012889421 -0.0014879918 -0.0042105555 -0.0027958238 -0.003813224 -0.00017009536 -0.0031871204 0.0044329735 -0.0015263818 0.0017405665 0.0027083196 -0.003482638 -0.0025724948 -0.0015692413 0.0024361094 0.003293613 -0.004313737 -0.0032514576 -0.003137766 0.0010451521 0.0037415177 0.0029918794 -0.0018360829 0.0023244903 0.0030861944 -0.002930072 -0.0041572624 0.0018540542 0.0011601476 0.004107819 -7.849187e-06 -0.0029129183 -0.004626136 -0.0011393649
一下 0.003851315 -0.0013287687 0.002024476 -0.0011788493 0.0047759013 0.00037386362 -0.00033453666 -0.0045328885 -0.00011809869 0.0021313657 0.0035302555 0.0015577399 -0.00047837663 0.00389307 0.004478885 -0.001668825 -0.0026663875 -0.0027507525 0.004743701 -0.0043255193 -0.0036595208 0.0047581354 -0.00048243627 0.004000224 0.0035131862 -0.0016599435 0.0015318561 -0.0040734434 0.0007704394 0.0034492062 0.001615826 0.0014077923 0.0036892435 0.0007556076 0.0015381561 -0.0004999335 -0.0038639526 -0.0012909453 -0.0006087534 -0.0022305488 -0.0034144674 0.00217077 -0.0037113456 -0.0049827844 -0.0048782513 -0.0022374874 0.0029571988 -0.003091117 -0.0011584724 -0.002430933 -0.0009294348 0.002547047 -0.0014310521 0.0028889189 -0.0017079001 0.0048510684 0.0032506008 0.003987194 0.0034522312 0.0036803987 0.004188641 -0.0007770825 0.0010964 -0.0019884652 -0.0018234868 -0.0013933056 0.004876038 0.0005331822 -0.0026311963 0.0017575496 0.003831502 0.004634713 -0.0039230012 0.00019104127 0.0041208556 0.00051006116 0.002618555 -0.002537223 0.00052484917 -0.0042394376 0.003313681 -0.00088491384 -0.0012555963 -0.00014005043 0.0030020596 -0.0032859426 -0.0031224722 -0.0012194519 -0.0035545086 0.0010306658 0.002704159 0.0033527901 -0.0042161727 -0.0010469407 -0.002283389 -0.0016935866 0.0031376043 0.0038621062 0.00293547 -0.002467206
